{"learner":{"attributes":{"scikit_learn":"{\"_estimator_type\": \"classifier\"}"},"feature_names":["jan_precip","feb_precip","mar_precip","apr_precip","may_precip","jun_precip","jul_precip","aug_precip","sep_precip","oct_precip","nov_precip","dec_precip","jan_temp","feb_temp","mar_temp","apr_temp","may_temp","jun_temp","jul_temp","aug_temp","sep_temp","oct_temp","nov_temp","dec_temp","jan_max_temp","feb_max_temp","mar_max_temp","apr_max_temp","may_max_temp","jun_max_temp","jul_max_temp","aug_max_temp","sep_max_temp","oct_max_temp","nov_max_temp","dec_max_temp","ann_avg_temp","ann_max_temp","latitude","longitude","total_population","previous_five_year_outbreak"],"feature_types":["float","float","float","float","float","float","float","float","float","float","float","float","float","float","float","float","float","float","float","float","float","float","float","float","float","float","float","float","float","float","float","float","float","float","float","float","float","float","float","float","float","float"],"gradient_booster":{"model":{"gbtree_model_param":{"num_parallel_tree":"1","num_trees":"100"},"iteration_indptr":[0,1,2,3,4,5,6,7,8,9,10,11,12,13,14,15,16,17,18,19,20,21,22,23,24,25,26,27,28,29,30,31,32,33,34,35,36,37,38,39,40,41,42,43,44,45,46,47,48,49,50,51,52,53,54,55,56,57,58,59,60,61,62,63,64,65,66,67,68,69,70,71,72,73,74,75,76,77,78,79,80,81,82,83,84,85,86,87,88,89,90,91,92,93,94,95,96,97,98,99,100],"tree_info":[0,0,0,0,0,0,0,0,0,0,0,0,0,0,0,0,0,0,0,0,0,0,0,0,0,0,0,0,0,0,0,0,0,0,0,0,0,0,0,0,0,0,0,0,0,0,0,0,0,0,0,0,0,0,0,0,0,0,0,0,0,0,0,0,0,0,0,0,0,0,0,0,0,0,0,0,0,0,0,0,0,0,0,0,0,0,0,0,0,0,0,0,0,0,0,0,0,0,0,0],"trees":[{"base_weights":[-5.6529718E-8,-4.2158085E-1,3.19299E-1,-1.8770649E-1,-1.2526492E0,2.0899203E-2,8.766673E-1,1.1495959E-1,-7.1281385E-1,-1.6870004E0,1.2060074E0,-1.5934685E-1,1.3088412E0,1.3249489E0,5.5995315E-1,-1.625494E-1,1.2701248E0,-1.7021475E0,-4.1514364E-1,-1.8059562E0,-4.072641E-3,-4.3957645E-1,1.477692E0,-3.2347432E-1,1.5794674E0,-2.1988301E-1,1.6226904E0,1.4078916E0,-3.5330284E-1,7.139269E-1,-9.559408E-1,-1.007576E0,2.565346E-1,1.471122E0,-1.2800158E0,8.718862E-2,-1.8511595E0,6.759308E-2,-1.1181371E0,-1.877669E0,-8.3736396E-1,1.4331785E0,-1.2800158E0,1.6170267E0,-3.3301243E-1,9.515401E-1,-4.5768893E-1,-4.592399E-1,1.7501458E0,-5.267652E-1,8.069875E-1,1.7416452E0,-8.4241736E-1,-3.9342657E-1,1.4570962E0,-4.951751E-1,3.247828E-1,8.352058E-1,-8.9927655E-1,2.4026491E-1,-1.6619008E0,-1.5303487E-1,-5.122595E-1,1.8420173E-1,-3.0525726E-1,-3.11262E-1,4.863212E-1,1.8608615E-1,-5.1061916E-1,-3.596534E-1,2.2295457E-1,1.0502992E-1,-5.720817E-1,-4.9857023E-1,9.171431E-2,-9.409182E-2,-4.9199128E-1,-5.814242E-1,-3.2933062E-1,-5.379433E-1,2.8418273E-1,1.0502992E-1,4.9359286E-1,-1.5482913E-2,-4.9951875E-1,1.8198471E-1,5.23248E-1,-1.9523042E-1,3.8354814E-1,-1.9927345E-1,9.94964E-2,3.0964258E-1,-4.495668E-1,5.4126984E-1,1.3234268E-1,4.8375815E-1,-1.1802798E-1,5.5180424E-1,-4.1498473E-1,1.8608615E-1,-4.3957645E-1,-3.596534E-1,4.814377E-2,4.4558445E-1,-3.596534E-1,2.865036E-1,-1.2038814E-1,-5.5331314E-1,3.2832593E-1,2.0212388E-1,-3.8145062E-1,-6.1495338E-2,-5.587837E-1],"categories":[],"categories_nodes":[],"categories_segments":[],"categories_sizes":[],"default_left":[0,0,0,0,0,0,0,0,0,0,0,0,0,0,0,0,0,0,0,0,0,0,0,0,0,0,0,0,0,0,0,0,0,0,0,0,0,0,0,0,0,0,0,0,0,0,0,0,0,0,0,0,0,0,0,0,0,0,0,0,0,0,0,0,0,0,0,0,0,0,0,0,0,0,0,0,0,0,0,0,0,0,0,0,0,0,0,0,0,0,0,0,0,0,0,0,0,0,0,0,0,0,0,0,0,0,0,0,0,0,0,0,0],"id":0,"left_children":[1,3,5,7,9,11,13,15,17,19,21,23,25,27,29,31,33,35,37,39,41,-1,43,45,47,49,51,53,55,57,59,61,63,65,67,69,71,73,75,77,79,81,83,85,-1,87,89,91,93,-1,95,97,99,101,103,-1,-1,105,107,109,111,-1,-1,-1,-1,-1,-1,-1,-1,-1,-1,-1,-1,-1,-1,-1,-1,-1,-1,-1,-1,-1,-1,-1,-1,-1,-1,-1,-1,-1,-1,-1,-1,-1,-1,-1,-1,-1,-1,-1,-1,-1,-1,-1,-1,-1,-1,-1,-1,-1,-1,-1,-1],"loss_changes":[3.279986E2,2.038741E2,2.3058594E2,1.3051529E2,2.481318E2,2.1008672E2,6.789618E1,1.6737415E2,8.770474E1,3.9283447E1,2.7698055E1,2.2710165E2,5.366127E1,2.8256195E1,6.721002E1,1.4947403E2,5.3715637E1,1.8589325E1,7.884113E1,1.1160095E1,2.743336E1,0E0,1.3488609E1,1.2472855E2,2.469136E1,3.2654144E1,2.853157E1,1.7433685E1,2.0770355E1,5.1485977E1,2.2954391E1,4.7838882E1,1.2926758E2,3.711711E1,7.4099426E0,6.1789765E0,8.506851E0,5.7566956E1,3.917903E1,5.8755493E0,2.633078E1,1.0406122E0,3.6614647E0,2.9474792E0,0E0,3.724165E1,1.0747472E2,1.0994776E1,3.7037354E0,0E0,1.2774408E1,2.9525574E1,5.393614E0,2.8001955E0,1.56579895E1,0E0,0E0,3.6189392E1,3.709111E1,7.925213E0,4.5667305E0,0E0,0E0,0E0,0E0,0E0,0E0,0E0,0E0,0E0,0E0,0E0,0E0,0E0,0E0,0E0,0E0,0E0,0E0,0E0,0E0,0E0,0E0,0E0,0E0,0E0,0E0,0E0,0E0,0E0,0E0,0E0,0E0,0E0,0E0,0E0,0E0,0E0,0E0,0E0,0E0,0E0,0E0,0E0,0E0,0E0,0E0,0E0,0E0,0E0,0E0,0E0,0E0],"parents":[2147483647,0,0,1,1,2,2,3,3,4,4,5,5,6,6,7,7,8,8,9,9,10,10,11,11,12,12,13,13,14,14,15,15,16,16,17,17,18,18,19,19,20,20,22,22,23,23,24,24,25,25,26,26,27,27,28,28,29,29,30,30,31,31,32,32,33,33,34,34,35,35,36,36,37,37,38,38,39,39,40,40,41,41,42,42,43,43,45,45,46,46,47,47,48,48,50,50,51,51,52,52,53,53,54,54,57,57,58,58,59,59,60,60],"right_children":[2,4,6,8,10,12,14,16,18,20,22,24,26,28,30,32,34,36,38,40,42,-1,44,46,48,50,52,54,56,58,60,62,64,66,68,70,72,74,76,78,80,82,84,86,-1,88,90,92,94,-1,96,98,100,102,104,-1,-1,106,108,110,112,-1,-1,-1,-1,-1,-1,-1,-1,-1,-1,-1,-1,-1,-1,-1,-1,-1,-1,-1,-1,-1,-1,-1,-1,-1,-1,-1,-1,-1,-1,-1,-1,-1,-1,-1,-1,-1,-1,-1,-1,-1,-1,-1,-1,-1,-1,-1,-1,-1,-1,-1,-1],"split_conditions":[1E0,7.266034E-1,6.831091E-1,5.929878E-1,4.9797103E-1,7.865349E-1,3.7179488E-1,6.399395E-1,5.090338E-1,7.806728E-1,7.1334666E-1,1.2494153E1,2.5774473E-1,8.684423E-1,8.1113803E-1,5.810752E-1,4.866828E-1,3.368937E-1,4.3823487E-1,8.898339E-1,8.386091E-1,-4.3957645E-1,1.2397582E-1,2.5791857E-1,4.1904762E-1,5.124049E0,7.6594025E-1,3.942857E-1,9.096916E-1,6.3590705E-1,5.152381E-1,5.5932206E-1,7.65E0,3.519246E-1,2.090222E-1,7.604107E-1,1.3423832E-1,2.8515896E-1,5.25641E-1,8.108047E-1,7.420584E-1,6.85E0,3.466102E-1,5.9888405E-1,-3.3301243E-1,2.4509034E-1,6.612255E-1,1.0107068E1,6.3901347E-1,-5.267652E-1,3.7416482E-1,5.6639725E-1,4.7833333E0,2.9484245E-1,9.683513E-1,-4.951751E-1,3.247828E-1,7.591304E-1,7.075897E-1,6.5293187E-1,9.828082E-2,-1.5303487E-1,-5.122595E-1,1.8420173E-1,-3.0525726E-1,-3.11262E-1,4.863212E-1,1.8608615E-1,-5.1061916E-1,-3.596534E-1,2.2295457E-1,1.0502992E-1,-5.720817E-1,-4.9857023E-1,9.171431E-2,-9.409182E-2,-4.9199128E-1,-5.814242E-1,-3.2933062E-1,-5.379433E-1,2.8418273E-1,1.0502992E-1,4.9359286E-1,-1.5482913E-2,-4.9951875E-1,1.8198471E-1,5.23248E-1,-1.9523042E-1,3.8354814E-1,-1.9927345E-1,9.94964E-2,3.0964258E-1,-4.495668E-1,5.4126984E-1,1.3234268E-1,4.8375815E-1,-1.1802798E-1,5.5180424E-1,-4.1498473E-1,1.8608615E-1,-4.3957645E-1,-3.596534E-1,4.814377E-2,4.4558445E-1,-3.596534E-1,2.865036E-1,-1.2038814E-1,-5.5331314E-1,3.2832593E-1,2.0212388E-1,-3.8145062E-1,-6.1495338E-2,-5.587837E-1],"split_indices":[41,5,13,25,28,7,35,16,12,8,7,39,33,23,23,3,23,5,6,10,9,0,1,35,21,39,23,21,9,1,21,23,39,12,4,27,35,3,35,7,4,39,40,8,0,12,2,38,13,0,19,30,38,2,9,0,0,15,2,24,2,0,0,0,0,0,0,0,0,0,0,0,0,0,0,0,0,0,0,0,0,0,0,0,0,0,0,0,0,0,0,0,0,0,0,0,0,0,0,0,0,0,0,0,0,0,0,0,0,0,0,0,0],"split_type":[0,0,0,0,0,0,0,0,0,0,0,0,0,0,0,0,0,0,0,0,0,0,0,0,0,0,0,0,0,0,0,0,0,0,0,0,0,0,0,0,0,0,0,0,0,0,0,0,0,0,0,0,0,0,0,0,0,0,0,0,0,0,0,0,0,0,0,0,0,0,0,0,0,0,0,0,0,0,0,0,0,0,0,0,0,0,0,0,0,0,0,0,0,0,0,0,0,0,0,0,0,0,0,0,0,0,0,0,0,0,0,0,0],"sum_hessian":[2.4346523E3,1.0491309E3,1.3855214E3,8.196856E2,2.2944524E2,9.030764E2,4.82445E2,5.204722E2,2.9921335E2,1.9526344E2,3.4181786E1,7.929765E2,1.1009989E2,1.98418E2,2.84027E2,4.203496E2,1.00122635E2,6.811357E1,2.3109978E2,1.8230437E2,1.2959079E1,2.7499974E0,3.1431787E1,7.253266E2,6.764993E1,1.8804527E1,9.1295364E1,1.892271E2,9.190901E0,2.5831793E2,2.5709066E1,1.3889078E2,2.8145883E2,9.319991E1,6.922721E0,5.268177E0,6.2845394E1,1.3754987E2,9.354991E1,1.6886348E2,1.3440896E1,6.036358E0,6.922721E0,3.018179E1,1.2499988E0,6.849993E1,6.5682666E2,5.0954494E0,6.2554485E1,7.2499933E0,1.1554535E1,8.737264E1,3.9227235E0,4.84545E0,1.8438164E2,4.749995E0,4.4409046E0,2.4070432E2,1.7613619E1,9.786354E0,1.5922712E1,8.219992E1,5.6690857E1,2.2019525E2,6.1263577E1,4.922723E0,8.827719E1,1.1727262E0,5.7499943E0,1.4999986E0,3.7681782E0,1.4227259E0,6.142267E1,1.5922712E1,1.2162716E2,3.743633E1,5.6113583E1,1.553453E2,1.3518169E1,8.749991E0,4.6909046E0,1.4227259E0,4.613632E0,1.9227254E0,4.999995E0,4.018178E0,2.6163612E1,1.1440898E1,5.7059036E1,5.207222E2,1.3610442E2,2.0954525E0,2.9999971E0,5.9709034E1,2.8454518E0,6.7090845E0,4.84545E0,8.512264E1,2.2499979E0,1.1727262E0,2.7499974E0,1.4999986E0,3.3454514E0,1.8288164E2,1.4999986E0,2.196498E2,2.1054525E1,1.1999989E1,5.6136312E0,8.036356E0,1.7499983E0,2.1727252E0,1.3749987E1],"tree_param":{"num_deleted":"0","num_feature":"42","num_nodes":"113","size_leaf_vector":"1"}},{"base_weights":[-2.317192E-3,-3.1381464E-1,2.3091693E-1,6.802857E-2,-6.571116E-1,1.15263104E-1,1.1356785E0,-1.2829921E0,2.8366914E-1,1.2466336E0,-7.984774E-1,3.2394466E-1,-6.046853E-1,1.2281777E0,-5.160118E-1,-1.4206765E0,3.380236E-1,-7.157994E-1,4.845577E-1,-6.771639E-1,1.4471134E0,-1.0071747E0,-3.4601757E-1,1.4727713E0,2.3010938E-1,-8.4412026E-1,5.029847E-1,1.3155599E0,-1.2094315E-1,-1.0936785E0,2.3060267E-1,-1.8040381E-1,-1.5652659E0,4.633437E-1,-3.304849E-1,-1.130361E0,7.2429407E-1,7.139888E-1,-3.2056177E-1,-3.474446E-1,1.0697238E-1,2.6194072E-1,1.5301442E0,-1.0584217E0,1.1387144E0,3.120539E-1,-8.3278817E-1,1.7453827E0,4.6008906E-1,-3.2727066E-1,5.4446757E-1,-1.5536194E0,-5.470086E-1,7.956013E-1,-1.1162893E0,5.773834E-1,1.4507039E0,1.0214168E0,-4.352257E-1,-4.531747E-1,7.638823E-2,-4.005749E-1,3.190604E-1,-2.1906628E-1,-4.8607433E-1,1.7237006E-1,-4.1220587E-1,-3.794504E-1,3.7434313E-1,-4.4914246E-1,2.294441E-1,7.550947E-2,-3.904436E-1,1.5462956E-2,1.1113451E-1,4.662667E-1,1.364724E-1,-3.3497474E-1,4.6556007E-2,7.302141E-2,3.8540688E-1,2.7145147E-1,-1.0739519E-1,-3.796898E-1,1.0159132E-1,6.266276E-1,4.5076948E-1,-3.6241204E-1,2.3305367E-1,-4.2911533E-1,-3.7230548E-2,-1.5154812E-1,1.9864424E-1,-4.963718E-1,-5.1994123E-2,2.459048E-1,-2.5415966E-1,-7.433689E-2,3.060588E-1,2.194345E-1,-4.6383804E-1,3.4610007E-3,4.20368E-1,1.5828376E-1,4.466517E-1,3.4532223E-2,3.795837E-1],"categories":[],"categories_nodes":[],"categories_segments":[],"categories_sizes":[],"default_left":[0,0,0,0,0,0,0,0,0,0,0,0,0,0,0,0,0,0,0,0,0,0,0,0,0,0,0,0,0,0,0,0,0,0,0,0,0,0,0,0,0,0,0,0,0,0,0,0,0,0,0,0,0,0,0,0,0,0,0,0,0,0,0,0,0,0,0,0,0,0,0,0,0,0,0,0,0,0,0,0,0,0,0,0,0,0,0,0,0,0,0,0,0,0,0,0,0,0,0,0,0,0,0,0,0,0,0],"id":1,"left_children":[1,3,5,7,9,11,13,15,17,19,21,23,25,27,29,31,33,35,37,39,41,43,45,47,49,51,53,55,57,59,-1,61,63,-1,-1,65,67,69,71,-1,-1,73,75,77,79,81,83,85,87,89,91,93,95,97,99,101,103,105,-1,-1,-1,-1,-1,-1,-1,-1,-1,-1,-1,-1,-1,-1,-1,-1,-1,-1,-1,-1,-1,-1,-1,-1,-1,-1,-1,-1,-1,-1,-1,-1,-1,-1,-1,-1,-1,-1,-1,-1,-1,-1,-1,-1,-1,-1,-1,-1,-1],"loss_changes":[1.7169128E2,1.3268176E2,1.4127571E2,1.4018454E2,1.4441312E2,1.8038199E2,2.4016953E1,1.5264305E1,8.3609146E1,1.5337666E1,4.655136E1,9.996532E1,7.199555E1,1.7280228E1,7.38686E0,1.0701027E1,1.2111465E1,4.2492916E1,6.412061E1,2.4985366E0,2.948166E0,3.852652E1,5.0968723E1,1.8542587E1,1.511077E2,4.6004486E1,2.391215E1,1.2777725E1,1.6293491E1,4.037009E0,0E0,1.2229985E1,1.3292694E0,0E0,0E0,2.3468292E1,1.8461193E1,3.1430283E1,4.3773422E1,0E0,0E0,5.931878E-2,1.1101532E-1,2.3605743E1,7.8479195E-1,2.7346666E1,4.670498E1,1.4351501E0,9.509478E0,6.957927E1,6.841092E1,8.779297E0,6.560167E1,1.0033806E1,7.368084E0,1.06037E1,3.252121E0,1.1432171E0,0E0,0E0,0E0,0E0,0E0,0E0,0E0,0E0,0E0,0E0,0E0,0E0,0E0,0E0,0E0,0E0,0E0,0E0,0E0,0E0,0E0,0E0,0E0,0E0,0E0,0E0,0E0,0E0,0E0,0E0,0E0,0E0,0E0,0E0,0E0,0E0,0E0,0E0,0E0,0E0,0E0,0E0,0E0,0E0,0E0,0E0,0E0,0E0,0E0],"parents":[2147483647,0,0,1,1,2,2,3,3,4,4,5,5,6,6,7,7,8,8,9,9,10,10,11,11,12,12,13,13,14,14,15,15,16,16,17,17,18,18,19,19,20,20,21,21,22,22,23,23,24,24,25,25,26,26,27,27,28,28,29,29,31,31,32,32,35,35,36,36,37,37,38,38,41,41,42,42,43,43,44,44,45,45,46,46,47,47,48,48,49,49,50,50,51,51,52,52,53,53,54,54,55,55,56,56,57,57],"right_children":[2,4,6,8,10,12,14,16,18,20,22,24,26,28,30,32,34,36,38,40,42,44,46,48,50,52,54,56,58,60,-1,62,64,-1,-1,66,68,70,72,-1,-1,74,76,78,80,82,84,86,88,90,92,94,96,98,100,102,104,106,-1,-1,-1,-1,-1,-1,-1,-1,-1,-1,-1,-1,-1,-1,-1,-1,-1,-1,-1,-1,-1,-1,-1,-1,-1,-1,-1,-1,-1,-1,-1,-1,-1,-1,-1,-1,-1,-1,-1,-1,-1,-1,-1,-1,-1,-1,-1,-1,-1],"split_conditions":[1E0,6.237687E-1,1.1928333E1,4.406913E-1,2.1549636E-1,5.5175984E-1,7.5221956E-1,8.7825596E-1,2.988328E-1,5.082167E-1,3.2776618E-1,4.8542157E-1,7.2316384E-1,7.4274516E-1,6.237938E-1,1.9004525E-1,6.9359756E-1,6.062698E-1,7.481315E-1,9.15E0,7.71407E0,9.724697E-1,4.7428572E-1,4.7982064E-1,6.382661E-1,4.132953E-1,4.2313808E-1,5.176812E-1,3.8447487E-1,1.0107068E1,2.3060267E-1,4.4989562E-1,1.8004191E-1,4.633437E-1,-3.304849E-1,3.4350735E-1,1.0416589E1,3.0745342E-1,4.0850392E-1,-3.474446E-1,1.0697238E-1,2.698729E-1,4.0877238E-1,7.806728E-1,1.7323779E-1,6.782346E0,6.7427266E-1,5.7957953E-1,6.173393E-1,2.1752642E-1,4.819527E-1,6.441322E-1,4.2547622E-1,5.125261E-1,3.368937E-1,6.432844E-1,7.563704E-1,4.8095238E-1,-4.352257E-1,-4.531747E-1,7.638823E-2,-4.005749E-1,3.190604E-1,-2.1906628E-1,-4.8607433E-1,1.7237006E-1,-4.1220587E-1,-3.794504E-1,3.7434313E-1,-4.4914246E-1,2.294441E-1,7.550947E-2,-3.904436E-1,1.5462956E-2,1.1113451E-1,4.662667E-1,1.364724E-1,-3.3497474E-1,4.6556007E-2,7.302141E-2,3.8540688E-1,2.7145147E-1,-1.0739519E-1,-3.796898E-1,1.0159132E-1,6.266276E-1,4.5076948E-1,-3.6241204E-1,2.3305367E-1,-4.2911533E-1,-3.7230548E-2,-1.5154812E-1,1.9864424E-1,-4.963718E-1,-5.1994123E-2,2.459048E-1,-2.5415966E-1,-7.433689E-2,3.060588E-1,2.194345E-1,-4.6383804E-1,3.4610007E-3,4.20368E-1,1.5828376E-1,4.466517E-1,3.4532223E-2,3.795837E-1],"split_indices":[41,5,39,12,23,20,23,29,3,37,31,4,17,9,9,35,25,8,13,39,39,11,21,13,13,8,4,28,22,38,0,14,4,0,0,5,38,20,6,0,0,3,10,8,40,38,27,9,13,26,3,40,9,14,5,9,26,21,0,0,0,0,0,0,0,0,0,0,0,0,0,0,0,0,0,0,0,0,0,0,0,0,0,0,0,0,0,0,0,0,0,0,0,0,0,0,0,0,0,0,0,0,0,0,0,0,0],"split_type":[0,0,0,0,0,0,0,0,0,0,0,0,0,0,0,0,0,0,0,0,0,0,0,0,0,0,0,0,0,0,0,0,0,0,0,0,0,0,0,0,0,0,0,0,0,0,0,0,0,0,0,0,0,0,0,0,0,0,0,0,0,0,0,0,0,0,0,0,0,0,0,0,0,0,0,0,0,0,0,0,0,0,0,0,0,0,0,0,0,0,0,0,0,0,0,0,0,0,0,0,0,0,0,0,0,0,0],"sum_hessian":[2.3612092E3,1.01083545E3,1.3503738E3,4.7893085E2,5.319046E2,1.1983221E3,1.5205165E2,6.524037E1,4.136905E2,3.6226818E1,4.9567776E2,9.2946185E2,2.688603E2,1.4423076E2,7.820899E0,6.024678E1,4.9935946E0,6.880517E1,3.448853E2,3.1945252E0,3.303229E1,3.383758E2,1.5730197E2,6.90754E1,8.603864E2,2.212686E2,4.759169E1,1.354806E2,8.750159E0,5.497568E0,2.3233306E0,6.524868E0,5.3721912E1,2.6772046E0,2.31639E0,5.3592503E1,1.5212665E1,2.684886E2,7.639673E1,2.0980027E0,1.0965225E0,2.434681E0,3.059761E1,3.309783E2,7.397477E0,6.703518E1,9.02668E1,5.3854416E1,1.5220988E1,3.102498E2,5.5013666E2,6.406147E1,1.5720712E2,4.0738552E1,6.8531365E0,2.178115E1,1.1369945E2,4.83156E0,3.9185991E0,4.107233E0,1.3903353E0,3.3455374E0,3.1793303E0,4.2009206E0,4.9520992E1,6.5315866E0,4.7060917E1,2.8745642E0,1.23381E1,5.3933835E0,2.630952E2,4.871825E1,2.7678476E1,1.3302772E0,1.1044037E0,2.9491726E1,1.1058853E0,3.1591827E2,1.5060049E1,1.4109752E0,5.9865017E0,3.5382107E1,3.1653076E1,6.58534E1,2.4413395E1,1.9158962E1,3.4695454E1,1.9799943E0,1.32409935E1,4.7314316E1,2.6293546E2,5.5129005E1,4.9500763E2,5.9510296E1,4.551178E0,2.7999924E1,1.292072E2,7.1976094E0,3.3540943E1,1.1609384E0,5.6921983E0,1.3513541E1,8.26761E0,5.0994E0,1.0860005E2,1.3364998E0,3.4950604E0],"tree_param":{"num_deleted":"0","num_feature":"42","num_nodes":"107","size_leaf_vector":"1"}},{"base_weights":[-3.0351267E-3,-8.260295E-2,6.3308823E-1,-1.5318802E-1,6.139457E-1,2.0173278E-1,1.1194035E0,-5.147797E-2,-6.0600555E-1,-2.4703589E-1,9.1422045E-1,-6.025813E-1,6.851116E-1,-1.0085235E0,1.2360001E0,3.792821E-1,-2.0482686E-1,-8.8519436E-1,2.9881153E-1,-1.1796923E0,5.144158E-1,1.7767753E-1,1.072939E0,-8.716532E-1,1.3403119E-1,-6.535114E-1,8.65925E-1,-4.173014E-1,5.36007E-2,1.3048246E0,-3.382292E-1,8.923901E-1,-2.9243072E-2,-1.697639E0,-1.5551607E-1,1.400953E-1,-1.1327076E0,-7.899069E-1,6.696539E-1,2.0634888E-1,-4.2791682E-1,6.987106E-1,-3.630039E-1,8.3451134E-1,-9.1060746E-1,-2.6579475E-1,1.1075976E0,-1.1615127E0,5.14489E-1,1.3940394E0,-8.271807E-1,3.6264905E-1,-4.2719194E-1,3.8547787E-1,1.2304379E0,-3.0171579E-2,1.3298944E0,3.028795E-1,-3.5649487E-1,-2.74113E-1,6.791907E-2,-5.3892803E-1,1.8618809E-1,-3.195482E-1,-2.4045693E-2,-3.9550993E-1,2.6229048E-1,-3.731252E-1,2.046381E-1,-3.6314908E-1,2.1202312E-1,3.2096776E-1,-1.3479409E-2,-8.379258E-2,2.4188636E-1,2.7687332E-1,-1.5452126E-1,-1.3168925E-1,3.3210188E-1,-4.8313114E-1,4.7332723E-2,3.4191614E-1,-6.688237E-2,-4.0297714E-1,-5.365186E-2,-5.6065176E-2,2.3489791E-1,6.2979853E-1,-2.5144407E-1,-3.8804635E-1,1.2871335E-1,2.3899083E-1,-6.463477E-2,-1.892799E-1,2.5267065E-1,1.2562315E-1,4.261663E-1,1.8509297E-1,4.1323322E-1],"categories":[],"categories_nodes":[],"categories_segments":[],"categories_sizes":[],"default_left":[0,0,0,0,0,0,0,0,0,0,0,0,0,0,0,0,0,0,0,0,0,0,0,0,0,0,0,0,0,0,0,0,0,0,0,0,0,0,0,0,0,0,0,0,0,0,0,0,0,0,0,0,0,0,0,0,0,0,0,0,0,0,0,0,0,0,0,0,0,0,0,0,0,0,0,0,0,0,0,0,0,0,0,0,0,0,0,0,0,0,0,0,0,0,0,0,0,0,0],"id":2,"left_children":[1,3,5,7,9,11,13,15,17,19,21,23,25,27,29,31,33,35,37,39,41,43,45,47,49,51,53,-1,-1,55,-1,57,59,61,63,65,67,69,71,73,-1,75,-1,77,79,-1,81,83,85,87,89,91,-1,93,95,-1,97,-1,-1,-1,-1,-1,-1,-1,-1,-1,-1,-1,-1,-1,-1,-1,-1,-1,-1,-1,-1,-1,-1,-1,-1,-1,-1,-1,-1,-1,-1,-1,-1,-1,-1,-1,-1,-1,-1,-1,-1,-1,-1],"loss_changes":[1.14044624E2,9.8556046E1,5.232287E1,8.375316E1,4.7916054E1,5.2499374E1,3.040657E1,9.827765E1,8.4530945E1,3.5040325E1,1.5822754E1,1.018998E1,2.0933338E1,3.270866E0,1.966864E1,8.1910225E1,8.048572E1,6.4914276E1,3.2588207E1,7.849909E0,9.549872E0,1.8975937E1,8.61911E0,1.5607662E1,1.8671461E1,8.802458E0,1.2584213E1,0E0,0E0,3.980194E0,0E0,4.3435593E1,4.9599514E1,9.124908E0,7.278728E1,5.5240852E1,4.2294006E1,1.3844057E1,1.7142906E1,1.4525187E0,0E0,7.381687E0,0E0,6.1817102E0,7.7830515E0,0E0,4.997696E0,5.3327065E0,1.4935881E0,1.2200115E1,5.729023E0,1.5166643E0,0E0,1.614114E1,5.8774567E0,0E0,2.7884521E0,0E0,0E0,0E0,0E0,0E0,0E0,0E0,0E0,0E0,0E0,0E0,0E0,0E0,0E0,0E0,0E0,0E0,0E0,0E0,0E0,0E0,0E0,0E0,0E0,0E0,0E0,0E0,0E0,0E0,0E0,0E0,0E0,0E0,0E0,0E0,0E0,0E0,0E0,0E0,0E0,0E0,0E0],"parents":[2147483647,0,0,1,1,2,2,3,3,4,4,5,5,6,6,7,7,8,8,9,9,10,10,11,11,12,12,13,13,14,14,15,15,16,16,17,17,18,18,19,19,20,20,21,21,22,22,23,23,24,24,25,25,26,26,29,29,31,31,32,32,33,33,34,34,35,35,36,36,37,37,38,38,39,39,41,41,43,43,44,44,46,46,47,47,48,48,49,49,50,50,51,51,53,53,54,54,56,56],"right_children":[2,4,6,8,10,12,14,16,18,20,22,24,26,28,30,32,34,36,38,40,42,44,46,48,50,52,54,-1,-1,56,-1,58,60,62,64,66,68,70,72,74,-1,76,-1,78,80,-1,82,84,86,88,90,92,-1,94,96,-1,98,-1,-1,-1,-1,-1,-1,-1,-1,-1,-1,-1,-1,-1,-1,-1,-1,-1,-1,-1,-1,-1,-1,-1,-1,-1,-1,-1,-1,-1,-1,-1,-1,-1,-1,-1,-1,-1,-1,-1,-1,-1,-1],"split_conditions":[7.865349E-1,1.1928333E1,2.7463195E-1,7.487691E-1,1E0,1E0,5.127967E-1,2.3858795E-1,8.2935524E-1,9.828082E-2,7.230676E-1,8.066667E0,2.504348E-1,8.1107867E-1,8.1044126E-1,4.668737E-1,2.7905533E-1,1.9345859E-1,1E0,3.4350735E-1,7.888386E-1,6.585956E-1,3.4380952E-1,8.912861E-1,8.333333E0,5.896849E-1,2.2713415E-1,-4.173014E-1,5.36007E-2,4.8872E0,-3.382292E-1,6.5620685E-1,6.457399E-1,7.138663E-1,3.5459802E-1,1E0,7.9920936E-1,3.3403954E-1,5.161805E0,7.1334666E-1,-4.2791682E-1,5.2014047E-1,-3.630039E-1,5.8669657E-1,1.0183889E1,-2.6579475E-1,7.8369653E-1,2.5594565E-1,7.507354E0,8.813826E-1,4.2384484E-1,4.295232E-1,-4.2719194E-1,5.4120266E-1,3.724289E-1,-3.0171579E-2,3.110762E-1,3.028795E-1,-3.5649487E-1,-2.74113E-1,6.791907E-2,-5.3892803E-1,1.8618809E-1,-3.195482E-1,-2.4045693E-2,-3.9550993E-1,2.6229048E-1,-3.731252E-1,2.046381E-1,-3.6314908E-1,2.1202312E-1,3.2096776E-1,-1.3479409E-2,-8.379258E-2,2.4188636E-1,2.7687332E-1,-1.5452126E-1,-1.3168925E-1,3.3210188E-1,-4.8313114E-1,4.7332723E-2,3.4191614E-1,-6.688237E-2,-4.0297714E-1,-5.365186E-2,-5.6065176E-2,2.3489791E-1,6.2979853E-1,-2.5144407E-1,-3.8804635E-1,1.2871335E-1,2.3899083E-1,-6.463477E-2,-1.892799E-1,2.5267065E-1,1.2562315E-1,4.261663E-1,1.8509297E-1,4.1323322E-1],"split_indices":[7,39,29,5,41,41,8,37,10,2,37,39,15,2,26,20,26,31,41,5,35,23,21,11,39,2,25,0,0,38,0,3,13,8,8,41,6,17,38,7,0,8,0,13,38,0,23,29,38,12,27,40,0,19,40,0,12,0,0,0,0,0,0,0,0,0,0,0,0,0,0,0,0,0,0,0,0,0,0,0,0,0,0,0,0,0,0,0,0,0,0,0,0,0,0,0,0,0,0],"split_type":[0,0,0,0,0,0,0,0,0,0,0,0,0,0,0,0,0,0,0,0,0,0,0,0,0,0,0,0,0,0,0,0,0,0,0,0,0,0,0,0,0,0,0,0,0,0,0,0,0,0,0,0,0,0,0,0,0,0,0,0,0,0,0,0,0,0,0,0,0,0,0,0,0,0,0,0,0,0,0,0,0,0,0,0,0,0,0,0,0,0,0,0,0,0,0,0,0,0,0],"sum_hessian":[2.2511472E3,2.0016467E3,2.495006E2,1.8181807E3,1.8346608E2,1.3297144E2,1.1652916E2,1.4856039E3,3.3257672E2,4.748605E1,1.3598004E2,4.9822727E1,8.314871E1,5.6559772E0,1.10873184E2,3.8963586E2,1.095968E3,2.5417163E2,7.840508E1,2.1096703E1,2.6389349E1,2.4483288E1,1.1149674E2,3.635833E1,1.3464399E1,9.583625E0,7.356509E1,4.1479464E0,1.5080311E0,1.0817108E2,2.7020984E0,1.7218584E2,2.1745001E2,3.397571E1,1.0619923E3,4.9511402E1,2.0466023E2,1.9633894E1,5.877119E1,3.2122982E0,1.7884403E1,2.4378736E1,2.0106113E0,1.5413604E1,9.069685E0,1.5113518E0,1.0998539E2,3.0204288E1,6.15404E0,5.63173E0,7.832669E0,4.3610945E0,5.2225304E0,3.2623333E1,4.0941757E1,1.8429853E0,1.06328094E2,1.6349101E2,8.694834E0,4.8180435E1,1.6926958E2,3.2802986E1,1.1727253E0,8.0249016E1,9.8174335E2,1.6312283E1,3.3199116E1,1.9315639E2,1.150385E1,1.5476009E1,4.1578846E0,3.7352734E1,2.1418455E1,2.070579E0,1.1417192E0,2.0780046E1,3.59869E0,2.6091433E0,1.2804461E1,5.173498E0,3.8961868E0,1.0753268E2,2.4527178E0,2.5180285E1,5.024005E0,1.7878605E0,4.3661795E0,4.3247786E0,1.3069515E0,5.690653E0,2.1420157E0,2.275108E0,2.0859864E0,9.99667E0,2.2626661E1,8.377396E0,3.256436E1,7.5221996E0,9.88059E1],"tree_param":{"num_deleted":"0","num_feature":"42","num_nodes":"99","size_leaf_vector":"1"}},{"base_weights":[-3.1285111E-3,-2.3080628E-1,1.6359597E-1,8.57703E-2,-4.4183505E-1,9.166252E-1,8.468256E-2,-1.0930393E0,2.5895274E-1,5.209575E-1,-5.49535E-1,1.048356E0,-4.654151E-1,2.5581494E-1,-2.3567924E-1,4.9467765E-2,-1.2960274E0,-1.072323E0,3.448689E-1,-3.713556E-1,8.294402E-1,-3.714423E-1,-9.761746E-1,1.1617446E0,-3.008429E-1,-5.974084E-2,5.6981504E-1,-5.9959346E-1,2.9589415E-1,-5.78322E-1,8.3500534E-1,-3.2191405E-1,-4.0588927E-1,-1.280744E0,1.274264E-1,5.298798E-1,-1.5836254E-1,1.0943282E0,-7.3520017E-1,-6.9183207E-1,2.5738966E-1,-1.060861E0,1.21073484E-1,1.3564068E0,4.315853E-1,2.7684507E-1,-4.0597698E-1,-3.095165E-1,1.107263E0,7.086211E-1,-4.4208157E-1,-1.2799263E0,-2.666747E-1,-1.0380139E0,4.6421042E-1,1.887252E-1,-3.3131933E-1,2.7013304E-2,3.4050962E-1,1.5924269E-1,-2.8226545E-1,7.0881814E-2,-4.286265E-1,3.56995E-1,1.0792189E-1,6.261812E-2,-3.5234722E-1,-5.4161474E-2,3.7002876E-1,-3.993661E-1,6.348361E-2,-3.1223947E-1,-1.10613376E-1,1.4168653E-1,-3.165645E-1,-3.6613166E-1,-1.1586247E-1,-2.6451883E-1,3.3160767E-1,1.1184142E-1,4.260271E-1,-1.834937E-1,4.327301E-1,-2.5568092E-2,-3.1571236E-1,3.9091036E-1,-4.559135E-1,2.333112E-1,-3.551665E-1,-3.090013E-1,3.1010583E-1,-4.081088E-1,9.683534E-2,2.9639873E-1,-1.3339567E-1,2.0911865E-1,-5.142974E-1,-2.5832385E-1,1.8155988E-1],"categories":[],"categories_nodes":[],"categories_segments":[],"categories_sizes":[],"default_left":[0,0,0,0,0,0,0,0,0,0,0,0,0,0,0,0,0,0,0,0,0,0,0,0,0,0,0,0,0,0,0,0,0,0,0,0,0,0,0,0,0,0,0,0,0,0,0,0,0,0,0,0,0,0,0,0,0,0,0,0,0,0,0,0,0,0,0,0,0,0,0,0,0,0,0,0,0,0,0,0,0,0,0,0,0,0,0,0,0,0,0,0,0,0,0,0,0,0,0],"id":3,"left_children":[1,3,5,7,9,11,13,15,17,19,21,23,-1,25,27,29,31,33,35,-1,37,39,41,43,45,47,49,51,53,55,57,59,-1,61,-1,63,65,67,69,71,73,75,77,79,81,-1,-1,83,85,87,89,91,93,95,97,-1,-1,-1,-1,-1,-1,-1,-1,-1,-1,-1,-1,-1,-1,-1,-1,-1,-1,-1,-1,-1,-1,-1,-1,-1,-1,-1,-1,-1,-1,-1,-1,-1,-1,-1,-1,-1,-1,-1,-1,-1,-1,-1,-1],"loss_changes":[8.1696014E1,6.0817604E1,7.375165E1,7.474191E1,5.6908287E1,3.9907333E1,6.177413E1,1.0943512E1,3.6835476E1,3.1112253E1,3.6990234E1,1.7541359E1,0E0,7.278215E1,7.609846E1,4.4480805E0,1.775795E0,6.6507072E0,2.803775E1,0E0,2.0605198E1,7.037921E1,1.3524307E1,1.4178162E1,1.3491172E1,1.07348145E2,5.2016075E1,5.2500618E1,3.6441116E1,3.9086533E0,7.875185E-1,2.3541355E0,0E0,4.2509327E0,0E0,2.4253708E1,3.0638319E1,7.5395203E0,4.5227146E0,2.567514E1,3.3878864E1,1.3948151E1,1.2056083E1,4.5782166E0,2.5484852E1,0E0,0E0,5.04217E1,3.5376663E1,4.329149E1,4.0124916E1,1.0287224E1,3.5701233E1,2.2615492E1,2.72236E1,0E0,0E0,0E0,0E0,0E0,0E0,0E0,0E0,0E0,0E0,0E0,0E0,0E0,0E0,0E0,0E0,0E0,0E0,0E0,0E0,0E0,0E0,0E0,0E0,0E0,0E0,0E0,0E0,0E0,0E0,0E0,0E0,0E0,0E0,0E0,0E0,0E0,0E0,0E0,0E0,0E0,0E0,0E0,0E0],"parents":[2147483647,0,0,1,1,2,2,3,3,4,4,5,5,6,6,7,7,8,8,9,9,10,10,11,11,13,13,14,14,15,15,16,16,17,17,18,18,20,20,21,21,22,22,23,23,24,24,25,25,26,26,27,27,28,28,29,29,30,30,31,31,33,33,35,35,36,36,37,37,38,38,39,39,40,40,41,41,42,42,43,43,44,44,47,47,48,48,49,49,50,50,51,51,52,52,53,53,54,54],"right_children":[2,4,6,8,10,12,14,16,18,20,22,24,-1,26,28,30,32,34,36,-1,38,40,42,44,46,48,50,52,54,56,58,60,-1,62,-1,64,66,68,70,72,74,76,78,80,82,-1,-1,84,86,88,90,92,94,96,98,-1,-1,-1,-1,-1,-1,-1,-1,-1,-1,-1,-1,-1,-1,-1,-1,-1,-1,-1,-1,-1,-1,-1,-1,-1,-1,-1,-1,-1,-1,-1,-1,-1,-1,-1,-1,-1,-1,-1,-1,-1,-1,-1,-1],"split_conditions":[1E0,5.935396E-1,3.959258E0,4.241948E-1,3.9386603E-1,4.0801886E-1,6.7150927E-1,3.368937E-1,5.594788E-1,4.9797103E-1,7.266034E-1,6.5620685E-1,-4.654151E-1,6.023916E-1,6.841514E-1,7.0414203E-1,1.3423832E-1,2.5275218E-1,8.598056E0,-3.713556E-1,1.02333E1,6.793373E-1,7.806728E-1,2.9739776E-1,6.609277E0,6.426471E-1,7.469565E-1,2.9727685E-1,5.397458E-1,8.683333E0,3.1280136E-1,7.5E0,-4.0588927E-1,3.8E0,1.274264E-1,4.8565018E-1,4.2149577E-1,3.0164966E-1,7.7685326E-1,5.8399177E-1,6.0365295E-1,7.906839E-1,5.36241E0,7.482106E-1,2.5275218E-1,2.7684507E-1,-4.0597698E-1,4.2058286E-1,5.603298E-1,6.9608825E-1,8.524962E-1,3.4585944E-1,5.065089E-1,5.055143E0,5.044543E-1,1.887252E-1,-3.3131933E-1,2.7013304E-2,3.4050962E-1,1.5924269E-1,-2.8226545E-1,7.0881814E-2,-4.286265E-1,3.56995E-1,1.0792189E-1,6.261812E-2,-3.5234722E-1,-5.4161474E-2,3.7002876E-1,-3.993661E-1,6.348361E-2,-3.1223947E-1,-1.10613376E-1,1.4168653E-1,-3.165645E-1,-3.6613166E-1,-1.1586247E-1,-2.6451883E-1,3.3160767E-1,1.1184142E-1,4.260271E-1,-1.834937E-1,4.327301E-1,-2.5568092E-2,-3.1571236E-1,3.9091036E-1,-4.559135E-1,2.333112E-1,-3.551665E-1,-3.090013E-1,3.1010583E-1,-4.081088E-1,9.683534E-2,2.9639873E-1,-1.3339567E-1,2.0911865E-1,-5.142974E-1,-2.5832385E-1,1.8155988E-1],"split_indices":[41,5,39,12,23,18,23,5,7,28,5,3,0,13,4,36,35,0,39,0,39,10,8,33,38,6,15,16,3,39,40,39,0,39,0,9,6,12,16,3,22,7,38,9,0,0,0,10,3,1,16,31,36,38,19,0,0,0,0,0,0,0,0,0,0,0,0,0,0,0,0,0,0,0,0,0,0,0,0,0,0,0,0,0,0,0,0,0,0,0,0,0,0,0,0,0,0,0,0],"split_type":[0,0,0,0,0,0,0,0,0,0,0,0,0,0,0,0,0,0,0,0,0,0,0,0,0,0,0,0,0,0,0,0,0,0,0,0,0,0,0,0,0,0,0,0,0,0,0,0,0,0,0,0,0,0,0,0,0,0,0,0,0,0,0,0,0,0,0,0,0,0,0,0,0,0,0,0,0,0,0,0,0,0,0,0,0,0,0,0,0,0,0,0,0,0,0,0,0,0,0],"sum_hessian":[2.1501965E3,9.0878375E2,1.2414128E3,3.6372787E2,5.4505585E2,1.16746544E2,1.1246664E3,4.5911083E1,3.178168E2,5.445084E1,4.9060504E2,1.11376976E2,5.369566E0,7.3320233E2,3.9146402E2,7.040472E0,3.887061E1,1.8571373E1,2.9924542E2,7.67563E0,4.6775208E1,3.4744238E2,1.4316264E2,1.0287053E2,8.506444E0,3.6609915E2,3.6710318E2,2.3230229E2,1.5916173E2,4.0597606E0,2.9807112E0,2.5139606E0,3.635665E1,1.6428698E1,2.1426756E0,2.187646E2,8.048082E1,4.0259933E1,6.5152736E0,2.3010417E2,1.1733821E2,1.3293573E2,1.0226911E1,8.054054E1,2.2329987E1,3.990159E0,4.5162854E0,3.0216177E2,6.3937378E1,3.230841E2,4.4019066E1,7.539173E1,1.5691057E2,1.7254286E1,1.4190744E2,1.1726304E0,2.8871303E0,1.2290711E0,1.7516402E0,1.1172365E0,1.3967242E0,1.4074044E0,1.5021293E1,4.3602623E1,1.7516197E2,5.970588E1,2.0774942E1,3.9313226E0,3.6328613E1,3.7491646E0,2.7661088E0,1.0955989E2,1.2054428E2,1.0138046E2,1.5957749E1,1.0685255E2,2.608318E1,5.1174145E0,5.109496E0,5.314293E0,7.522625E1,1.1183323E1,1.1146664E1,2.3294417E2,6.9217606E1,5.997203E1,3.9653497E0,3.1227414E2,1.0809993E1,3.1694519E1,1.2324545E1,7.19328E1,3.4589307E0,1.8927563E1,1.37983E2,4.830625E0,1.242366E1,1.3153923E1,1.2875351E2],"tree_param":{"num_deleted":"0","num_feature":"42","num_nodes":"99","size_leaf_vector":"1"}},{"base_weights":[-4.9548014E-3,-1.8348931E-1,1.2323934E-1,-9.392563E-2,-8.011039E-1,5.537882E-2,6.762649E-1,3.5794817E-2,-4.6641767E-1,-4.0527108E-1,-4.8049295E-1,-2.1624148E-2,7.356016E-1,-9.7652234E-2,9.3858576E-1,-5.7201028E-2,6.447755E-1,-5.987399E-1,6.3714147E-1,-5.645566E-1,6.20381E-1,7.126261E-1,-1.0745935E-1,7.6612845E-2,9.118341E-1,-4.0603355E-1,2.3591441E-1,1.0252216E0,-4.6732277E-1,-5.526832E-1,5.7137657E-2,1.0189484E0,1.1519221E-1,-1.0410142E0,-1.9175436E-1,9.931035E-1,-3.2370287E-1,-1.1379095E0,-2.5922728E-1,8.292194E-1,-3.821498E-1,-2.534367E-1,2.3453213E-1,8.7512445E-1,-3.907936E-1,-2.03298E-1,9.420552E-1,-1.0591661E0,4.7152513E-1,1.1082116E0,9.9789456E-2,-3.5747814E-1,3.6751375E-1,-8.089649E-2,-3.8617846E-1,-2.7616274E-1,4.2496618E-2,3.574462E-1,-2.1376882E-1,-2.4660835E-1,2.0112662E-1,-3.8763565E-1,-1.18203975E-1,-2.3386161E-1,7.999772E-2,-1.4051239E-1,3.622536E-1,-3.6802077E-1,4.243342E-3,5.7172775E-2,-1.9871509E-1,-2.0099638E-1,2.846975E-1,-2.8971868E-2,-2.6130435E-1,2.7443442E-1,-1.3178402E-2,-4.7359865E-2,3.3930168E-1,-4.4382408E-1,1.616112E-2,3.0484885E-1,5.740648E-2,-4.6234158E-1,4.5263745E-2,-3.7891904E-1,1.8760625E-1,4.9673583E-2,3.414341E-1,2.0519681E-1,-2.8775856E-1],"categories":[],"categories_nodes":[],"categories_segments":[],"categories_sizes":[],"default_left":[0,0,0,0,0,0,0,0,0,0,0,0,0,0,0,0,0,0,0,0,0,0,0,0,0,0,0,0,0,0,0,0,0,0,0,0,0,0,0,0,0,0,0,0,0,0,0,0,0,0,0,0,0,0,0,0,0,0,0,0,0,0,0,0,0,0,0,0,0,0,0,0,0,0,0,0,0,0,0,0,0,0,0,0,0,0,0,0,0,0,0],"id":4,"left_children":[1,3,5,7,9,11,13,15,17,-1,19,21,23,25,27,29,31,33,35,37,-1,39,41,43,45,-1,47,49,51,53,55,57,59,61,63,65,-1,67,69,71,-1,73,75,77,79,-1,81,83,85,87,89,-1,-1,-1,-1,-1,-1,-1,-1,-1,-1,-1,-1,-1,-1,-1,-1,-1,-1,-1,-1,-1,-1,-1,-1,-1,-1,-1,-1,-1,-1,-1,-1,-1,-1,-1,-1,-1,-1,-1,-1],"loss_changes":[4.623553E1,4.6627575E1,4.409157E1,3.5700768E1,1.8176102E1,5.4932705E1,2.6164764E1,3.1109747E1,2.8246586E1,0E0,1.595163E1,5.949617E1,1.2315517E1,1.4317534E1,1.2173607E1,2.7049606E1,1.4302067E1,3.0563744E1,1.3848466E1,1.1537853E1,0E0,2.3941547E1,4.2243923E1,9.148029E0,4.675934E0,0E0,8.816028E0,6.859352E0,9.132849E0,1.8262867E1,3.2223923E1,1.354998E1,1.6815315E1,1.2760605E1,2.452038E1,6.1567726E0,0E0,2.3906898E0,8.359125E0,1.7503654E1,0E0,5.733307E1,4.8021027E1,2.562796E0,7.618577E0,0E0,4.41761E0,2.8589082E0,7.1276507E0,2.156227E0,5.956503E0,0E0,0E0,0E0,0E0,0E0,0E0,0E0,0E0,0E0,0E0,0E0,0E0,0E0,0E0,0E0,0E0,0E0,0E0,0E0,0E0,0E0,0E0,0E0,0E0,0E0,0E0,0E0,0E0,0E0,0E0,0E0,0E0,0E0,0E0,0E0,0E0,0E0,0E0,0E0,0E0],"parents":[2147483647,0,0,1,1,2,2,3,3,4,4,5,5,6,6,7,7,8,8,10,10,11,11,12,12,13,13,14,14,15,15,16,16,17,17,18,18,19,19,21,21,22,22,23,23,24,24,26,26,27,27,28,28,29,29,30,30,31,31,32,32,33,33,34,34,35,35,37,37,38,38,39,39,41,41,42,42,43,43,44,44,46,46,47,47,48,48,49,49,50,50],"right_children":[2,4,6,8,10,12,14,16,18,-1,20,22,24,26,28,30,32,34,36,38,-1,40,42,44,46,-1,48,50,52,54,56,58,60,62,64,66,-1,68,70,72,-1,74,76,78,80,-1,82,84,86,88,90,-1,-1,-1,-1,-1,-1,-1,-1,-1,-1,-1,-1,-1,-1,-1,-1,-1,-1,-1,-1,-1,-1,-1,-1,-1,-1,-1,-1,-1,-1,-1,-1,-1,-1,-1,-1,-1,-1,-1,-1],"split_conditions":[1E0,6.485454E-1,7.8016144E-1,5.899543E-1,8.252127E-1,1.1963889E1,2.6084262E-1,7.6674736E-1,8.008083E-1,-4.0527108E-1,8.147E0,3.959258E0,5.3507245E-1,5.124049E0,6.930435E-1,2.147806E-1,2.0668177E-1,5.620488E-1,8.434191E-1,7.0818275E-1,6.20381E-1,4.0801886E-1,6.4267385E-1,3.6993274E-1,3.7416482E-1,-4.0603355E-1,2.7976573E-1,9.130194E-1,5.004035E-1,2.672194E-1,3.519246E-1,2.7104592E-1,3.5421017E-1,8.0586374E-1,6.53333E0,5.8566326E-1,-3.2370287E-1,8.1753767E-1,6.380246E-1,3.001592E-1,-3.821498E-1,6.836158E-1,5.051889E-1,5.532167E-1,6.249137E-1,-2.03298E-1,7.5251144E-1,8.8452476E-1,8.577846E-1,2.8608695E-1,4.676471E-1,-3.5747814E-1,3.6751375E-1,-8.089649E-2,-3.8617846E-1,-2.7616274E-1,4.2496618E-2,3.574462E-1,-2.1376882E-1,-2.4660835E-1,2.0112662E-1,-3.8763565E-1,-1.18203975E-1,-2.3386161E-1,7.999772E-2,-1.4051239E-1,3.622536E-1,-3.6802077E-1,4.243342E-3,5.7172775E-2,-1.9871509E-1,-2.0099638E-1,2.846975E-1,-2.8971868E-2,-2.6130435E-1,2.7443442E-1,-1.3178402E-2,-4.7359865E-2,3.3930168E-1,-4.4382408E-1,1.616112E-2,3.0484885E-1,5.740648E-2,-4.6234158E-1,4.5263745E-2,-3.7891904E-1,1.8760625E-1,4.9673583E-2,3.414341E-1,2.0519681E-1,-2.8775856E-1],"split_indices":[41,3,7,22,9,39,33,23,30,0,38,39,28,39,15,30,29,3,16,7,0,18,2,40,19,0,40,9,23,32,12,32,31,24,38,7,0,8,2,40,0,23,6,3,5,0,22,12,9,15,0,0,0,0,0,0,0,0,0,0,0,0,0,0,0,0,0,0,0,0,0,0,0,0,0,0,0,0,0,0,0,0,0,0,0,0,0,0,0,0,0],"split_type":[0,0,0,0,0,0,0,0,0,0,0,0,0,0,0,0,0,0,0,0,0,0,0,0,0,0,0,0,0,0,0,0,0,0,0,0,0,0,0,0,0,0,0,0,0,0,0,0,0,0,0,0,0,0,0,0,0,0,0,0,0,0,0,0,0,0,0,0,0,0,0,0,0,0,0,0,0,0,0,0,0,0,0,0,0,0,0,0,0,0,0],"sum_hessian":[2.0181709E3,8.432939E2,1.1748771E3,7.3749744E2,1.05796455E2,1.0474473E3,1.27429756E2,5.476738E2,1.8982365E2,3.778586E1,6.80106E1,9.4180115E2,1.0564611E2,3.2417408E1,9.5012344E1,4.7590558E2,7.176822E1,1.6990825E2,1.9915403E1,6.659242E1,1.4181794E0,9.781042E1,8.439907E2,2.2594162E1,8.305195E1,6.161908E0,2.6255499E1,8.975234E1,5.26E0,8.851136E1,3.8739423E2,4.1513283E1,3.0254938E1,8.067751E1,8.923073E1,1.6843138E1,3.0722647E0,2.219237E1,4.440005E1,9.293807E1,4.8723464E0,5.916898E2,2.5230092E2,8.020218E0,1.4573945E1,1.1498828E0,8.190206E1,3.5033338E0,2.2752165E1,8.218474E1,7.5676055E0,3.8907886E0,1.3692114E0,6.488044E1,2.3630922E1,3.0037394E1,3.5735684E2,3.80351E1,3.4781816E0,1.1076851E1,1.9178087E1,5.740229E1,2.3275227E1,3.8791363E1,5.0439365E1,2.0033252E0,1.4839813E1,2.0543581E1,1.6487888E0,2.1235172E1,2.3164877E1,6.535713E0,8.640236E1,4.7276468E2,1.1892514E2,7.261787E1,1.7968306E2,1.6683092E0,6.3519087E0,3.5516963E0,1.1022248E1,7.422146E1,7.6806045E0,2.309727E0,1.1936069E0,1.2659847E0,2.1486181E1,2.7278793E0,7.945686E1,5.1053143E0,2.4622915E0],"tree_param":{"num_deleted":"0","num_feature":"42","num_nodes":"91","size_leaf_vector":"1"}},{"base_weights":[-5.1132957E-3,-4.4944403E-1,4.2801466E-2,-5.9190446E-1,6.207294E-1,1.5821251E-1,-1.4498557E-1,-1.0241174E0,-3.2767106E-2,-2.0111619E-1,7.750692E-1,-1.2652072E-1,3.0728176E-1,-7.5897527E-1,-7.211452E-3,-1.0983979E0,6.809298E-1,7.315688E-1,-4.902079E-1,8.454721E-1,-8.1276864E-2,-3.8824055E-1,5.3319377E-1,3.5149732E-1,-9.557518E-1,-1.1176451E0,-4.5598233E-1,-4.819462E-1,1.5817691E-1,-1.297125E0,-4.1950667E-1,4.2224178E-1,-7.241373E-2,1.5141867E0,9.615728E-2,2.6431626E-1,-1.3129227E0,-1.2991504E-2,9.2109233E-1,-8.378391E-1,1.8893017E-1,-8.081176E-1,6.2634575E-1,8.912364E-1,2.6085404E-1,7.094293E-1,-3.801998E-1,7.3236614E-2,-1.2739028E0,-9.5080376E-1,1.3865873E-2,-8.063456E-1,2.0490646E-1,3.3811036E-1,-2.0566484E-1,-4.177665E-1,-7.7564426E-2,-3.765955E-1,1.1708098E-1,1.3453698E-1,4.8920485E-1,-3.488193E-1,1.4127113E-1,2.7534214E-1,-2.101546E-1,-4.5393872E-1,-1.0486122E-1,1.3329956E-1,3.0193302E-1,-2.9230544E-1,2.8967718E-2,1.00612536E-1,-5.0115323E-1,-5.237508E-1,2.1000196E-1,2.0689718E-1,-2.685468E-1,3.1747118E-1,-2.9079214E-1,9.640058E-2,-3.9143935E-1,4.2083988E-1,-6.4661756E-2,-2.2669987E-1,3.2919866E-1,-4.3056878E-1,-3.523612E-2,-4.0117025E-1,-7.6940825E-4,-3.322266E-1,1.2692015E-1,-2.9695335E-1,6.049306E-2,-1.7952907E-1,1.6748926E-1,1.2683637E-1,-1.366572E-1,-2.4530077E-1,6.932996E-2],"categories":[],"categories_nodes":[],"categories_segments":[],"categories_sizes":[],"default_left":[0,0,0,0,0,0,0,0,0,0,0,0,0,0,0,0,0,0,0,0,0,0,0,0,0,0,0,0,0,0,0,0,0,0,0,0,0,0,0,0,0,0,0,0,0,0,0,0,0,0,0,0,0,0,0,0,0,0,0,0,0,0,0,0,0,0,0,0,0,0,0,0,0,0,0,0,0,0,0,0,0,0,0,0,0,0,0,0,0,0,0,0,0,0,0,0,0,0,0],"id":5,"left_children":[1,3,5,7,9,11,13,15,17,-1,19,21,23,25,27,29,31,33,35,37,-1,39,41,43,45,47,49,51,53,55,57,-1,-1,59,61,63,65,-1,67,69,71,73,75,77,79,81,-1,83,85,87,89,91,93,95,97,-1,-1,-1,-1,-1,-1,-1,-1,-1,-1,-1,-1,-1,-1,-1,-1,-1,-1,-1,-1,-1,-1,-1,-1,-1,-1,-1,-1,-1,-1,-1,-1,-1,-1,-1,-1,-1,-1,-1,-1,-1,-1,-1,-1],"loss_changes":[4.1043453E1,2.8976349E1,3.7739326E1,4.0111732E1,5.009865E0,4.5808266E1,5.6074627E1,1.2610199E1,2.6042404E1,0E0,1.7454166E0,6.4308334E1,3.9878433E1,1.269297E1,4.2667904E1,1.1616081E1,3.373461E0,1.3730826E1,2.9245628E1,1.3528519E0,0E0,6.928401E1,1.3734343E1,3.3272858E1,1.3464346E1,1.0317375E1,1.571664E1,3.1448978E1,2.6456701E1,6.502968E0,1.5303953E1,0E0,0E0,8.12685E-1,8.31673E0,1.6478558E1,3.79887E0,0E0,2.872362E-1,1.9218086E1,3.254528E1,1.1562375E1,1.0207783E1,3.149456E1,5.607833E1,3.1617408E0,0E0,7.041795E0,8.903114E0,1.2056553E1,1.6817677E1,1.7875858E1,1.3346888E1,1.834184E1,3.6005432E1,0E0,0E0,0E0,0E0,0E0,0E0,0E0,0E0,0E0,0E0,0E0,0E0,0E0,0E0,0E0,0E0,0E0,0E0,0E0,0E0,0E0,0E0,0E0,0E0,0E0,0E0,0E0,0E0,0E0,0E0,0E0,0E0,0E0,0E0,0E0,0E0,0E0,0E0,0E0,0E0,0E0,0E0,0E0,0E0],"parents":[2147483647,0,0,1,1,2,2,3,3,4,4,5,5,6,6,7,7,8,8,10,10,11,11,12,12,13,13,14,14,15,15,16,16,17,17,18,18,19,19,21,21,22,22,23,23,24,24,25,25,26,26,27,27,28,28,29,29,30,30,33,33,34,34,35,35,36,36,38,38,39,39,40,40,41,41,42,42,43,43,44,44,45,45,47,47,48,48,49,49,50,50,51,51,52,52,53,53,54,54],"right_children":[2,4,6,8,10,12,14,16,18,-1,20,22,24,26,28,30,32,34,36,38,-1,40,42,44,46,48,50,52,54,56,58,-1,-1,60,62,64,66,-1,68,70,72,74,76,78,80,82,-1,84,86,88,90,92,94,96,98,-1,-1,-1,-1,-1,-1,-1,-1,-1,-1,-1,-1,-1,-1,-1,-1,-1,-1,-1,-1,-1,-1,-1,-1,-1,-1,-1,-1,-1,-1,-1,-1,-1,-1,-1,-1,-1,-1,-1,-1,-1,-1,-1,-1],"split_conditions":[3.942857E-1,8.0219597E-1,6.9814366E-1,4.847561E-1,3.5578007E-1,5.090287E-1,5.532167E-1,9.176529E-1,2.976012E-1,-2.0111619E-1,6.030111E-1,7.358757E-1,7.35268E-1,6.054795E-1,7.433414E-1,6.077482E-1,7.1510345E-1,5.1166815E-1,7.793889E0,1.2874043E-1,-8.1276864E-2,4.2773843E-1,2.8336948E-1,4.3732008E-1,2.591125E-1,4.7884187E-1,4.9165273E-1,3.5563818E-1,6.366136E-1,7.629758E-1,3.4313726E-1,4.2224178E-1,-7.241373E-2,3.627627E-1,4.5921278E-1,6.2145424E-1,1.2494153E1,-1.2991504E-2,2.804399E-1,1.1928333E1,7.2800493E-1,8.408443E-1,2.2093178E-1,6.8336815E-1,7.704348E-1,2.4880339E-1,-3.801998E-1,4.6659243E-1,8.301064E-1,7.5593424E-1,1E0,6.956748E-1,4.904762E-1,5.4761904E-1,6.742028E-1,-4.177665E-1,-7.7564426E-2,-3.765955E-1,1.1708098E-1,1.3453698E-1,4.8920485E-1,-3.488193E-1,1.4127113E-1,2.7534214E-1,-2.101546E-1,-4.5393872E-1,-1.0486122E-1,1.3329956E-1,3.0193302E-1,-2.9230544E-1,2.8967718E-2,1.00612536E-1,-5.0115323E-1,-5.237508E-1,2.1000196E-1,2.0689718E-1,-2.685468E-1,3.1747118E-1,-2.9079214E-1,9.640058E-2,-3.9143935E-1,4.2083988E-1,-6.4661756E-2,-2.2669987E-1,3.2919866E-1,-4.3056878E-1,-3.523612E-2,-4.0117025E-1,-7.6940825E-4,-3.322266E-1,1.2692015E-1,-2.9695335E-1,6.049306E-2,-1.7952907E-1,1.6748926E-1,1.2683637E-1,-1.366572E-1,-2.4530077E-1,6.932996E-2],"split_indices":[21,7,23,25,40,8,3,5,34,0,24,17,1,22,23,23,2,6,39,31,0,3,40,4,24,19,6,33,3,10,35,0,0,40,27,5,39,0,12,39,33,27,10,31,15,40,0,19,7,37,41,4,21,21,8,0,0,0,0,0,0,0,0,0,0,0,0,0,0,0,0,0,0,0,0,0,0,0,0,0,0,0,0,0,0,0,0,0,0,0,0,0,0,0,0,0,0,0,0],"split_type":[0,0,0,0,0,0,0,0,0,0,0,0,0,0,0,0,0,0,0,0,0,0,0,0,0,0,0,0,0,0,0,0,0,0,0,0,0,0,0,0,0,0,0,0,0,0,0,0,0,0,0,0,0,0,0,0,0,0,0,0,0,0,0,0,0,0,0,0,0,0,0,0,0,0,0,0,0,0,0,0,0,0,0,0,0,0,0,0,0,0,0,0,0,0,0,0,0,0,0],"sum_hessian":[1.9259242E3,1.8665211E2,1.739272E3,1.651186E2,2.1533512E1,1.0773231E3,6.6194885E2,9.2660484E1,7.245812E1,1.9422455E0,1.9591267E1,3.7025674E2,7.070664E2,1.2048761E2,5.4146124E2,8.913319E1,3.527296E0,2.6904404E1,4.555372E1,1.8535402E1,1.0558646E0,2.653854E2,1.04871346E2,6.838483E2,2.321807E1,5.3943245E1,6.6544365E1,1.3940262E2,4.0205865E2,6.82455E1,2.0887688E1,1.6788003E0,1.8484957E0,1.1436006E1,1.5468398E1,2.4115633E1,2.1438086E1,1.4869043E0,1.7048498E1,1.4892538E2,1.1646002E2,6.311774E0,9.855957E1,9.706119E1,5.867871E2,3.4584112E0,1.9759659E1,6.3186226E0,4.7624622E1,3.1912266E1,3.46321E1,9.4565506E1,4.4837105E1,2.6906607E2,1.3299257E2,6.2190292E1,6.055204E0,1.0007862E1,1.0879827E1,1.6047719E0,9.831234E0,3.0660117E0,1.2402387E1,1.4406615E1,9.709017E0,1.7277018E1,4.161067E0,3.5309544E0,1.3517544E1,1.299041E2,1.9021286E1,1.0871735E2,7.7426715E0,3.7946951E0,2.5170784E0,9.514711E1,3.4124615E0,8.946235E1,7.598841E0,5.657278E2,2.1059343E1,1.6814098E0,1.7770015E0,3.6369648E0,2.6816576E0,4.1582706E1,6.041913E0,2.238117E1,9.531096E0,8.803249E0,2.5828848E1,8.001688E1,1.45486355E1,1.3486313E1,3.1350792E1,2.4354779E2,2.5518278E1,5.502218E1,7.79704E1],"tree_param":{"num_deleted":"0","num_feature":"42","num_nodes":"99","size_leaf_vector":"1"}},{"base_weights":[-9.318704E-3,-1.6371134E-1,1.0124111E-1,-2.222362E-2,-4.074102E-1,-1.7569639E-2,3.2406008E-1,-8.649123E-1,5.9565607E-2,-5.675099E-1,4.7014657E-1,-6.449854E-1,5.0975733E-2,2.0289022E-1,8.181442E-1,-4.8552014E-2,-1.1404624E0,-9.746316E-1,1.1161465E-1,-8.930209E-1,-2.6740804E-1,8.879886E-1,-2.2366104E-1,9.658347E-2,-1.103742E0,3.7373203E-1,-8.761847E-2,2.4045028E-1,-3.8083723E-1,-7.3776E-1,8.971737E-1,-4.820118E-1,2.4648093E-1,-3.5204217E-1,-2.2099122E-2,-1.1151971E-2,-3.6896393E-1,2.618413E-1,-1.6860403E-1,-1.013108E0,5.953627E-1,-1.10039905E-1,-3.6161432E-1,-2.2394776E-1,1.005806E0,6.5158945E-1,-7.2229564E-1,1.1671091E0,-5.4365504E-1,-1.2214957E0,6.136553E-1,8.416537E-1,2.7148692E-2,3.49159E-1,-3.7972617E-1,5.6462765E-1,2.6404427E-2,-4.5741066E-1,4.8723187E-2,1.1208693E0,2.9645225E-1,6.76324E-2,-3.1353003E-1,-2.8148913E-1,1.6381624E-1,4.1551206E-2,2.4102539E-1,1.8132363E-2,-2.426701E-1,-1.8909438E-1,-3.5749304E-1,-2.207357E-2,2.5885072E-1,9.230332E-2,-1.6777012E-1,3.316027E-1,-1.471647E-1,3.3022907E-1,-1.0235811E-1,1.236979E-1,-3.6143526E-1,-5.4413844E-3,4.9852493E-1,-3.1087425E-1,7.429534E-2,2.0521128E-1,-4.005014E-1,3.3676457E-1,-2.6568417E-2,-3.9886457E-1,3.0327916E-1,-9.5089786E-2,2.0196116E-1,-6.967565E-2,2.0954546E-1,1.5749721E-1,-1.5440571E-1,1.9689696E-1,-3.8651282E-1,2.3617248E-1,-3.8174905E-2,-6.166209E-2,3.5342047E-1,2.4664971E-1,-1.4086902E-1],"categories":[],"categories_nodes":[],"categories_segments":[],"categories_sizes":[],"default_left":[0,0,0,0,0,0,0,0,0,0,0,0,0,0,0,0,0,0,0,0,0,0,0,0,0,0,0,0,0,0,0,0,0,0,0,0,0,0,0,0,0,0,0,0,0,0,0,0,0,0,0,0,0,0,0,0,0,0,0,0,0,0,0,0,0,0,0,0,0,0,0,0,0,0,0,0,0,0,0,0,0,0,0,0,0,0,0,0,0,0,0,0,0,0,0,0,0,0,0,0,0,0,0,0,0],"id":6,"left_children":[1,3,5,7,9,11,13,15,17,19,21,23,25,27,29,31,33,35,37,39,41,43,45,47,49,51,53,55,-1,57,59,61,-1,-1,-1,63,-1,65,67,69,71,73,-1,-1,75,77,79,81,83,85,87,89,91,93,95,97,99,-1,-1,101,103,-1,-1,-1,-1,-1,-1,-1,-1,-1,-1,-1,-1,-1,-1,-1,-1,-1,-1,-1,-1,-1,-1,-1,-1,-1,-1,-1,-1,-1,-1,-1,-1,-1,-1,-1,-1,-1,-1,-1,-1,-1,-1,-1,-1],"loss_changes":[3.1310377E1,2.6381771E1,2.830346E1,3.3499805E1,3.975842E1,3.0056616E1,2.2092709E1,9.617245E0,2.3971226E1,2.3027222E1,1.2929823E1,2.352303E1,2.8226994E1,1.6890308E1,9.624958E0,4.8827715E0,1.044136E0,5.2353745E0,1.7849073E1,2.0947052E1,1.8369795E1,6.067686E0,8.023325E0,1.92953E1,9.365574E0,3.0714823E1,5.6494377E1,2.0335688E1,0E0,3.1323335E0,9.050102E0,3.649737E0,0E0,0E0,0E0,3.3430948E0,0E0,1.8306911E1,2.1786575E1,6.4722214E0,1.6966386E0,2.0519466E1,0E0,0E0,4.441452E0,3.4108503E0,6.791807E0,6.1901236E0,7.163503E0,9.609455E0,1.314196E0,3.0973454E1,2.465018E1,3.6224712E1,3.2650734E1,2.0655079E1,2.0873941E1,0E0,0E0,4.074749E0,8.562792E0,0E0,0E0,0E0,0E0,0E0,0E0,0E0,0E0,0E0,0E0,0E0,0E0,0E0,0E0,0E0,0E0,0E0,0E0,0E0,0E0,0E0,0E0,0E0,0E0,0E0,0E0,0E0,0E0,0E0,0E0,0E0,0E0,0E0,0E0,0E0,0E0,0E0,0E0,0E0,0E0,0E0,0E0,0E0,0E0],"parents":[2147483647,0,0,1,1,2,2,3,3,4,4,5,5,6,6,7,7,8,8,9,9,10,10,11,11,12,12,13,13,14,14,15,15,16,16,17,17,18,18,19,19,20,20,21,21,22,22,23,23,24,24,25,25,26,26,27,27,29,29,30,30,31,31,35,35,37,37,38,38,39,39,40,40,41,41,44,44,45,45,46,46,47,47,48,48,49,49,50,50,51,51,52,52,53,53,54,54,55,55,56,56,59,59,60,60],"right_children":[2,4,6,8,10,12,14,16,18,20,22,24,26,28,30,32,34,36,38,40,42,44,46,48,50,52,54,56,-1,58,60,62,-1,-1,-1,64,-1,66,68,70,72,74,-1,-1,76,78,80,82,84,86,88,90,92,94,96,98,100,-1,-1,102,104,-1,-1,-1,-1,-1,-1,-1,-1,-1,-1,-1,-1,-1,-1,-1,-1,-1,-1,-1,-1,-1,-1,-1,-1,-1,-1,-1,-1,-1,-1,-1,-1,-1,-1,-1,-1,-1,-1,-1,-1,-1,-1,-1,-1],"split_conditions":[1E0,6.6422904E-1,6.831091E-1,4.241948E-1,5.02029E-1,2.8050712E-1,5.559269E-1,2.5272077E-1,3.5459802E-1,6.8094444E0,5.137195E-1,4.3823487E-1,2.0034643E-1,8.773204E-1,4.6E-1,5.540453E-1,6.633401E-1,4.5561665E-1,6.1737806E-1,9.1155607E-1,8.752377E0,7.021295E-1,5.3002777E0,3.0340987E-1,7.5386995E-1,5.8686674E-1,5.000294E-1,6.078985E-1,-3.8083723E-1,3.9213854E-1,7.138663E-1,1.1891463E1,2.4648093E-1,-3.5204217E-1,-2.2099122E-2,6.0647184E-1,-3.6896393E-1,6.399395E-1,4.6191332E-1,3.754291E-1,3.7416482E-1,8.4526443E-1,-3.6161432E-1,-2.2394776E-1,8.801788E-1,4.3781328E-1,6.0553557E-1,5.569175E0,8.663878E0,1.6144747E-1,7.135788E0,6.0089684E-1,1.9988675E-1,4.4115108E-1,3.999929E-1,6.476655E-1,2.4535316E-1,-4.5741066E-1,4.8723187E-2,3.1833334E0,3.2434782E-1,6.76324E-2,-3.1353003E-1,-2.8148913E-1,1.6381624E-1,4.1551206E-2,2.4102539E-1,1.8132363E-2,-2.426701E-1,-1.8909438E-1,-3.5749304E-1,-2.207357E-2,2.5885072E-1,9.230332E-2,-1.6777012E-1,3.316027E-1,-1.471647E-1,3.3022907E-1,-1.0235811E-1,1.236979E-1,-3.6143526E-1,-5.4413844E-3,4.9852493E-1,-3.1087425E-1,7.429534E-2,2.0521128E-1,-4.005014E-1,3.3676457E-1,-2.6568417E-2,-3.9886457E-1,3.0327916E-1,-9.5089786E-2,2.0196116E-1,-6.967565E-2,2.0954546E-1,1.5749721E-1,-1.5440571E-1,1.9689696E-1,-3.8651282E-1,2.3617248E-1,-3.8174905E-2,-6.166209E-2,3.5342047E-1,2.4664971E-1,-1.4086902E-1],"split_indices":[41,5,13,12,28,24,11,4,8,39,25,6,30,23,21,9,8,12,25,11,38,7,39,31,7,8,4,7,0,40,8,38,0,0,0,14,0,16,6,40,19,9,0,0,9,40,7,39,39,31,38,13,29,6,6,3,33,0,0,39,15,0,0,0,0,0,0,0,0,0,0,0,0,0,0,0,0,0,0,0,0,0,0,0,0,0,0,0,0,0,0,0,0,0,0,0,0,0,0,0,0,0,0,0,0],"split_type":[0,0,0,0,0,0,0,0,0,0,0,0,0,0,0,0,0,0,0,0,0,0,0,0,0,0,0,0,0,0,0,0,0,0,0,0,0,0,0,0,0,0,0,0,0,0,0,0,0,0,0,0,0,0,0,0,0,0,0,0,0,0,0,0,0,0,0,0,0,0,0,0,0,0,0,0,0,0,0,0,0,0,0,0,0,0,0,0,0,0,0,0,0,0,0,0,0,0,0,0,0,0,0,0,0],"sum_hessian":[1.8323038E3,7.643863E2,1.0679176E3,4.8430035E2,2.8008594E2,6.971218E2,3.7079572E2,4.1999306E1,4.4230106E2,2.3717038E2,4.2915573E1,6.783143E1,6.292904E2,2.9890298E2,7.189273E1,1.0895598E1,3.1103706E1,2.0344156E1,4.2195688E2,1.1282112E2,1.2434926E2,2.6609974E1,1.6305597E1,2.6226465E1,4.1604965E1,1.8853531E2,4.407551E2,2.9228345E2,6.619554E0,3.0722442E0,6.882049E1,7.5704904E0,3.3251083E0,3.0073116E1,1.0305896E0,4.479431E0,1.5864725E1,2.747354E2,1.4722147E2,1.04693474E2,8.1276455E0,1.07440735E2,1.6908522E1,1.4303738E0,2.51796E1,5.8065844E0,1.0499013E1,9.507051E0,1.6719414E1,3.9205578E1,2.3993852E0,7.9616615E1,1.089187E2,1.7655855E2,2.6419653E2,1.15586754E2,1.7669669E2,1.2690393E0,1.8032049E0,4.951595E1,1.9304537E1,3.6208982E0,3.9495919E0,1.4247811E0,3.0546503E0,2.2479655E2,4.9938858E1,1.0910006E2,3.8121407E1,3.4739624E1,6.995385E1,2.5286033E0,5.5990424E0,5.583411E1,5.1606625E1,2.3854153E1,1.3254471E0,3.9229312E0,1.8836535E0,3.175921E0,7.323092E0,3.0829892E0,6.424062E0,1.011391E1,6.6055045E0,1.9215308E0,3.728405E1,1.0441303E0,1.3552549E0,5.262589E0,7.435403E1,7.139844E1,3.7520264E1,6.639205E1,1.101665E2,3.391998E1,2.3027657E2,1.1075202E2,4.834734E0,2.8995995E1,1.4770068E2,1.939794E0,4.7576157E1,1.1404426E1,7.9001117E0],"tree_param":{"num_deleted":"0","num_feature":"42","num_nodes":"105","size_leaf_vector":"1"}},{"base_weights":[-8.870918E-3,-4.0353574E-2,3.5345408E-1,-2.327974E-2,-1.0235021E0,-7.263315E-2,5.21751E-1,-4.341602E-1,9.63847E-3,-4.635899E-1,-4.2296508E-1,1.0986214E0,-3.3525458E-1,-1.0149905E-1,6.76593E-1,-8.327098E-1,3.5959354E-1,2.6757108E-2,-1.0831832E0,-1.0681068E0,9.354774E-1,1.3260944E0,4.005832E-2,6.146655E-1,-6.504174E-1,2.0636258E-1,-1.1440816E0,5.0669795E-1,1.1336235E0,-9.680721E-1,4.5334446E-1,6.7677313E-1,-3.6500365E-1,2.8358704E-1,-4.0575773E-2,2.5786927E-1,-1.37659E0,-4.082969E-1,1.24892965E-1,3.5622138E-1,8.3427645E-2,4.8510858E-1,1.7958556E-1,9.219322E-1,-1.4014769E-1,-1.1873988E0,-4.160898E-2,-7.7302253E-1,4.553846E-1,-4.219227E-1,-3.596603E-2,6.237694E-1,-5.523107E-1,4.8595384E-2,1.1935616E0,-3.3825472E-1,-8.356527E-2,-3.404687E-1,3.911912E-1,2.5385323E-1,-1.1463005E-1,-4.470592E-1,9.4043426E-2,1.0850017E-1,-2.5681117E-1,-2.657598E-1,2.527719E-3,9.508921E-2,-4.5045835E-1,5.590152E-2,3.224592E-1,-4.1946176E-1,2.1183877E-1,8.7133616E-2,-2.8090188E-1,-3.066669E-1,-1.4658403E-2,-9.982998E-2,2.128271E-1,7.5405695E-2,2.584904E-1,1.0798588E-1,-3.2613462E-1,3.7123898E-1,1.1615542E-1],"categories":[],"categories_nodes":[],"categories_segments":[],"categories_sizes":[],"default_left":[0,0,0,0,0,0,0,0,0,0,0,0,0,0,0,0,0,0,0,0,0,0,0,0,0,0,0,0,0,0,0,0,0,0,0,0,0,0,0,0,0,0,0,0,0,0,0,0,0,0,0,0,0,0,0,0,0,0,0,0,0,0,0,0,0,0,0,0,0,0,0,0,0,0,0,0,0,0,0,0,0,0,0,0,0],"id":7,"left_children":[1,3,5,7,9,11,13,15,17,19,-1,21,23,25,27,29,31,33,35,37,39,41,-1,43,45,47,49,51,53,55,57,59,61,63,65,-1,67,-1,-1,-1,-1,-1,-1,69,-1,71,73,75,77,-1,-1,79,81,-1,83,-1,-1,-1,-1,-1,-1,-1,-1,-1,-1,-1,-1,-1,-1,-1,-1,-1,-1,-1,-1,-1,-1,-1,-1,-1,-1,-1,-1,-1,-1],"loss_changes":[1.980138E1,2.6781513E1,9.989555E0,2.12478E1,5.2384987E0,1.2725122E1,9.681175E0,3.71612E1,2.7250784E1,1.1664575E1,0E0,1.4895191E0,1.0453131E1,6.8774257E0,5.630741E0,1.399543E1,9.359236E0,2.4803795E1,1.3989477E1,4.5979233E0,3.8820267E-1,3.085785E-1,0E0,3.3824341E0,8.352642E0,4.4545984E0,1.1397891E0,7.7915E0,1.020834E0,7.4671173E0,1.2418964E1,5.3328333E0,1.0178567E1,2.6818563E1,4.7091724E1,0E0,4.6871834E0,0E0,0E0,0E0,0E0,0E0,0E0,6.1552477E-1,0E0,6.4238358E0,4.158344E0,6.3233423E-1,3.0473309E0,0E0,0E0,4.6163273E0,3.5672297E0,0E0,2.1049118E-1,0E0,0E0,0E0,0E0,0E0,0E0,0E0,0E0,0E0,0E0,0E0,0E0,0E0,0E0,0E0,0E0,0E0,0E0,0E0,0E0,0E0,0E0,0E0,0E0,0E0,0E0,0E0,0E0,0E0,0E0],"parents":[2147483647,0,0,1,1,2,2,3,3,4,4,5,5,6,6,7,7,8,8,9,9,11,11,12,12,13,13,14,14,15,15,16,16,17,17,18,18,19,19,20,20,21,21,23,23,24,24,25,25,26,26,27,27,28,28,29,29,30,30,31,31,32,32,33,33,34,34,36,36,43,43,45,45,46,46,47,47,48,48,51,51,52,52,54,54],"right_children":[2,4,6,8,10,12,14,16,18,20,-1,22,24,26,28,30,32,34,36,38,40,42,-1,44,46,48,50,52,54,56,58,60,62,64,66,-1,68,-1,-1,-1,-1,-1,-1,70,-1,72,74,76,78,-1,-1,80,82,-1,84,-1,-1,-1,-1,-1,-1,-1,-1,-1,-1,-1,-1,-1,-1,-1,-1,-1,-1,-1,-1,-1,-1,-1,-1,-1,-1,-1,-1,-1,-1],"split_conditions":[1.1783334E1,7.888386E-1,1E0,4.1131008E-1,4.138041E-1,3.093112E-1,7.230676E-1,7.379944E-1,7.9227555E-1,3.9903829E-1,-4.2296508E-1,7.43215E-1,3.7304556E-1,6.97286E-1,8.407012E-1,6.441322E-1,1.02333E1,5.517639E-1,4.7385103E-1,3.7192744E-1,3.476066E-1,1.02167E1,4.005832E-2,8.8626474E-1,8.264659E-1,5.7501394E-1,5.15888E-1,7.985386E-1,5.7501394E-1,7.4430645E-1,6.323479E-1,1.33697E1,3.7896165E-1,6.759834E-1,1.9656163E-1,2.5786927E-1,3.2909605E-1,-4.082969E-1,1.24892965E-1,3.5622138E-1,8.3427645E-2,4.8510858E-1,1.7958556E-1,8.495652E-1,-1.4014769E-1,5.9928226E-1,7.5641024E-1,3.8350984E-1,6.191062E-1,-4.219227E-1,-3.596603E-2,4.8310503E-1,7.595861E-1,4.8595384E-2,6.6623425E-1,-3.3825472E-1,-8.356527E-2,-3.404687E-1,3.911912E-1,2.5385323E-1,-1.1463005E-1,-4.470592E-1,9.4043426E-2,1.0850017E-1,-2.5681117E-1,-2.657598E-1,2.527719E-3,9.508921E-2,-4.5045835E-1,5.590152E-2,3.224592E-1,-4.1946176E-1,2.1183877E-1,8.7133616E-2,-2.8090188E-1,-3.066669E-1,-1.4658403E-2,-9.982998E-2,2.128271E-1,7.5405695E-2,2.584904E-1,1.0798588E-1,-3.2613462E-1,3.7123898E-1,1.1615542E-1],"split_indices":[39,35,41,8,40,32,37,17,14,40,0,14,5,14,25,40,39,4,24,1,6,38,0,26,24,7,6,14,7,20,7,38,40,20,2,0,17,0,0,0,0,0,0,15,0,40,35,16,5,0,0,22,37,0,4,0,0,0,0,0,0,0,0,0,0,0,0,0,0,0,0,0,0,0,0,0,0,0,0,0,0,0,0,0,0],"split_type":[0,0,0,0,0,0,0,0,0,0,0,0,0,0,0,0,0,0,0,0,0,0,0,0,0,0,0,0,0,0,0,0,0,0,0,0,0,0,0,0,0,0,0,0,0,0,0,0,0,0,0,0,0,0,0,0,0,0,0,0,0,0,0,0,0,0,0,0,0,0,0,0,0,0,0,0,0,0,0,0,0,0,0,0,0],"sum_hessian":[1.7336539E3,1.5958759E3,1.3777808E2,1.5696405E3,2.6235458E1,3.9172123E1,9.860595E1,1.15522E2,1.4541184E3,1.1610418E1,1.462504E1,6.5915313E0,3.258059E1,1.9691359E1,7.89146E1,7.687395E1,3.8648052E1,1.432652E3,2.1466436E1,8.272533E0,3.337885E0,5.031538E0,1.5599935E0,7.87987E0,2.470072E1,1.5821527E1,3.8698335E0,5.9066193E1,1.9848402E1,6.97769E1,7.097043E0,2.6927164E1,1.1720889E1,2.9691354E2,1.1357384E3,2.563438E0,1.8903E1,6.978741E0,1.2937926E0,1.8302369E0,1.507648E0,2.720682E0,2.3108559E0,6.25195E0,1.6279203E0,1.2619606E1,1.2081115E1,2.7807624E0,1.3040764E1,2.7836668E0,1.0861665E0,5.35566E1,5.509594E0,1.3683882E0,1.8480013E1,5.6156235E1,1.362067E1,2.3587441E0,4.738299E0,2.3386532E1,3.540633E0,3.9589682E0,7.7619205E0,2.785141E2,1.8399464E1,6.129547E1,1.074443E3,1.193117E0,1.7709883E1,1.4579116E0,4.794038E0,1.1590788E1,1.0288178E0,9.303691E0,2.7774236E0,1.7626113E0,1.018151E0,3.1032102E0,9.937553E0,2.1675985E1,3.1880611E1,2.1570568E0,3.3525374E0,1.7018858E1,1.4611554E0],"tree_param":{"num_deleted":"0","num_feature":"42","num_nodes":"85","size_leaf_vector":"1"}},{"base_weights":[-8.525295E-3,-1.2901868E-1,7.672676E-2,-6.6532835E-2,-5.2075934E-1,3.5739955E-2,6.0186785E-1,1.3001606E-1,-2.2704275E-1,-1.0368981E0,-2.49798E-1,1.0631853E-2,6.992405E-1,-3.5290778E-1,7.423217E-1,-4.8110196E-1,3.3377746E-1,1.6037755E-1,-3.977301E-1,1.8587169E-1,-3.6471015E-1,5.0339337E-2,-7.950581E-1,-3.0653745E-1,9.3829945E-2,4.867769E-1,3.9670023E-1,-3.7814915E-1,8.224256E-1,-8.277215E-1,2.5517625E-1,-1.4906662E0,3.8320723E-1,3.9521554E-1,-7.069523E-1,-4.8540452E-1,2.7423403E-1,-2.362216E-1,2.963588E-1,2.7567157E-1,-3.046061E-1,2.835573E-1,-9.916876E-1,8.8853693E-1,-3.8390738E-1,5.8545244E-1,-1.9010734E-2,-1.2799671E-1,7.854988E-1,8.973486E-1,-1.9992003E-1,-3.313618E-1,5.1214057E-3,-1.7346364E-1,2.814772E-1,-4.1764896E-2,-5.468647E-1,1.6337517E-1,-5.4114763E-2,4.9288545E-2,2.994654E-1,-3.302524E-1,1.171106E-1,-2.0318772E-1,-2.070637E-2,3.694156E-1,-1.0111634E-1,3.3199217E-2,4.0498984E-1,2.7745217E-1,-2.171173E-1,-3.4699154E-1,2.1764949E-1,-3.0184418E-1,3.962709E-1,-1.73855E-1,-1.31299E-2,-1.4322181E-1,2.2848266E-1,-3.7742704E-2,1.04283966E-1,-2.6808736E-1,1.6086967E-1,3.24326E-1,-1.2555751E-1,3.0658293E-1,7.137436E-2,-3.7313882E-1,2.5731003E-1],"categories":[],"categories_nodes":[],"categories_segments":[],"categories_sizes":[],"default_left":[0,0,0,0,0,0,0,0,0,0,0,0,0,0,0,0,0,0,0,0,0,0,0,0,0,0,0,0,0,0,0,0,0,0,0,0,0,0,0,0,0,0,0,0,0,0,0,0,0,0,0,0,0,0,0,0,0,0,0,0,0,0,0,0,0,0,0,0,0,0,0,0,0,0,0,0,0,0,0,0,0,0,0,0,0,0,0,0,0],"id":8,"left_children":[1,3,5,7,9,11,13,15,17,19,21,23,25,-1,27,29,31,33,35,37,-1,39,41,43,45,47,-1,-1,49,51,53,55,57,59,61,63,65,-1,-1,67,-1,69,71,73,75,77,79,81,83,85,87,-1,-1,-1,-1,-1,-1,-1,-1,-1,-1,-1,-1,-1,-1,-1,-1,-1,-1,-1,-1,-1,-1,-1,-1,-1,-1,-1,-1,-1,-1,-1,-1,-1,-1,-1,-1,-1,-1],"loss_changes":[1.7358536E1,1.7104275E1,2.1280746E1,1.9115997E1,1.319108E1,1.5304316E1,1.8753475E1,3.4105644E1,2.2110435E1,7.39505E0,1.0576377E1,2.3424713E1,3.7908611E0,0E0,1.1779686E1,1.7711903E1,1.9061064E1,2.1192554E1,1.3784634E1,4.72009E0,0E0,1.047734E1,5.141588E0,1.7398401E1,3.901783E1,4.9786153E0,0E0,0E0,5.1576385E0,1.09772835E1,1.3472901E1,2.2662315E0,1.8326063E1,1.117615E1,1.0040452E1,1.6359383E1,1.643677E1,0E0,0E0,6.203861E0,0E0,3.4541562E0,6.392473E0,1.0765106E1,1.1548925E1,2.49455E1,2.2473444E1,5.3338394E0,6.8643713E0,4.747116E0,6.869082E0,0E0,0E0,0E0,0E0,0E0,0E0,0E0,0E0,0E0,0E0,0E0,0E0,0E0,0E0,0E0,0E0,0E0,0E0,0E0,0E0,0E0,0E0,0E0,0E0,0E0,0E0,0E0,0E0,0E0,0E0,0E0,0E0,0E0,0E0,0E0,0E0,0E0,0E0],"parents":[2147483647,0,0,1,1,2,2,3,3,4,4,5,5,6,6,7,7,8,8,9,9,10,10,11,11,12,12,14,14,15,15,16,16,17,17,18,18,19,19,21,21,22,22,23,23,24,24,25,25,28,28,29,29,30,30,31,31,32,32,33,33,34,34,35,35,36,36,39,39,41,41,42,42,43,43,44,44,45,45,46,46,47,47,48,48,49,49,50,50],"right_children":[2,4,6,8,10,12,14,16,18,20,22,24,26,-1,28,30,32,34,36,38,-1,40,42,44,46,48,-1,-1,50,52,54,56,58,60,62,64,66,-1,-1,68,-1,70,72,74,76,78,80,82,84,86,88,-1,-1,-1,-1,-1,-1,-1,-1,-1,-1,-1,-1,-1,-1,-1,-1,-1,-1,-1,-1,-1,-1,-1,-1,-1,-1,-1,-1,-1,-1,-1,-1,-1,-1,-1,-1,-1,-1],"split_conditions":[1E0,6.375714E-1,6.161754E-1,4.730849E-1,8.252127E-1,8.600605E-1,2.5923017E-1,6.2608016E-1,5.7399106E-1,4.382766E-1,4.4757888E-1,5.090287E-1,4.4757888E-1,-3.5290778E-1,2.1860817E-1,1.0416589E1,1.6194093E-1,4.818402E-1,7.8343195E-1,1.2397582E-1,-3.6471015E-1,7.6826394E-1,5.8598214E-1,1.7440544E-1,5.4295516E-1,7.228571E-1,3.9670023E-1,-3.7814915E-1,6.570122E-1,6.860371E-1,5.214002E-1,2.504348E-1,7.55E0,6.013742E-1,8.544734E-1,8.091123E-1,5.000496E0,-2.362216E-1,2.963588E-1,7.644517E-1,-3.046061E-1,5.56927E-1,8.733046E-1,6.239116E-1,7.947826E-1,4.1369864E-1,7.550806E-1,4.44619E-1,7.39726E-1,6.5620685E-1,7.485844E-1,-3.313618E-1,5.1214057E-3,-1.7346364E-1,2.814772E-1,-4.1764896E-2,-5.468647E-1,1.6337517E-1,-5.4114763E-2,4.9288545E-2,2.994654E-1,-3.302524E-1,1.171106E-1,-2.0318772E-1,-2.070637E-2,3.694156E-1,-1.0111634E-1,3.3199217E-2,4.0498984E-1,2.7745217E-1,-2.171173E-1,-3.4699154E-1,2.1764949E-1,-3.0184418E-1,3.962709E-1,-1.73855E-1,-1.31299E-2,-1.4322181E-1,2.2848266E-1,-3.7742704E-2,1.04283966E-1,-2.6808736E-1,1.6086967E-1,3.24326E-1,-1.2555751E-1,3.0658293E-1,7.137436E-2,-3.7313882E-1,2.5731003E-1],"split_indices":[41,3,40,20,9,16,12,12,13,2,40,8,40,0,16,38,40,23,36,1,0,5,8,29,8,21,0,0,25,23,40,15,39,8,29,12,39,0,0,5,0,6,7,4,28,22,7,12,22,3,29,0,0,0,0,0,0,0,0,0,0,0,0,0,0,0,0,0,0,0,0,0,0,0,0,0,0,0,0,0,0,0,0,0,0,0,0,0,0],"split_type":[0,0,0,0,0,0,0,0,0,0,0,0,0,0,0,0,0,0,0,0,0,0,0,0,0,0,0,0,0,0,0,0,0,0,0,0,0,0,0,0,0,0,0,0,0,0,0,0,0,0,0,0,0,0,0,0,0,0,0,0,0,0,0,0,0,0,0,0,0,0,0,0,0,0,0,0,0,0,0,0,0,0,0,0,0,0,0,0,0],"sum_hessian":[1.6878744E3,6.991698E2,9.887046E2,6.0399713E2,9.5172646E1,9.181146E2,7.058998E1,2.716024E2,3.3239478E2,3.1790323E1,6.338232E1,8.8561725E2,3.249739E1,4.6275196E0,6.596246E1,6.75741E1,2.0402829E2,1.0167553E2,2.3071922E2,4.050534E0,2.773979E1,4.146543E1,2.1916887E1,1.8347728E2,7.0213995E2,2.5562326E1,6.935065E0,1.9700463E0,6.3992416E1,4.5860184E1,2.171391E1,4.6128187E0,1.9941547E2,8.0439964E1,2.123557E1,2.0433614E2,2.6383091E1,1.8380758E0,2.2124581E0,3.4840096E1,6.625336E0,3.3111918E0,1.8605696E1,1.0518696E1,1.7295859E2,1.3029301E2,5.718469E2,8.546021E0,1.7016304E1,5.9736843E1,4.2555714E0,3.4310135E1,1.1550053E1,9.850003E0,1.1863906E1,1.1901916E0,3.422627E0,1.5505205E2,4.4363422E1,5.908555E1,2.1354412E1,1.5624036E1,5.6115355E0,1.3944644E2,6.4889694E1,9.887266E0,1.6495825E1,3.1157442E1,3.682653E0,2.073163E0,1.2380288E0,1.7272915E1,1.3327808E0,1.707804E0,8.810891E0,1.093624E2,6.359619E1,1.8281216E1,1.120118E2,4.433539E2,1.2849303E2,3.809556E0,4.7364655E0,1.3744206E1,3.2720976E0,4.9781345E1,9.955499E0,2.0531096E0,2.2024617E0],"tree_param":{"num_deleted":"0","num_feature":"42","num_nodes":"89","size_leaf_vector":"1"}},{"base_weights":[-7.0774434E-3,-3.2393083E-2,3.626928E-1,5.6937363E-2,-1.7011598E-1,-1.4915736E-1,6.0729355E-1,-2.9880503E-1,1.5915415E-1,-3.1267124E-1,2.5265336E-1,-3.3744353E-1,5.337009E-2,7.582042E-1,5.703344E-2,-5.481332E-1,1.9006154E-1,1.8914825E-1,-6.490204E-1,-4.9523738E-1,-3.9004885E-2,6.134997E-1,-5.0866377E-2,4.8027903E-1,-4.0765324E-1,9.950124E-1,3.7819406E-1,-1.0534681E0,6.260537E-1,-7.304131E-1,-1.1547853E-1,-3.8566294E-1,2.6797095E-1,1.3930951E-1,6.7943245E-1,-3.7347716E-1,-1.2668781E-1,-2.2213346E-1,-7.934783E-1,-1.0024974E0,6.0414486E-2,-9.935276E-2,8.869982E-1,-2.6615456E-1,6.6927576E-1,7.2624795E-2,3.13665E-1,1.6828386E-1,-1.4851018E0,2.4346067E-1,1.0476338E0,-7.582114E-1,5.333644E-1,-4.2498222E-1,-1.7476786E-2,-4.45634E-1,9.107144E-1,-3.9733518E-2,-2.8592238E-1,1.6113096E-1,-2.3509943E-1,-1.1254636E-1,1.2876257E-1,1.8936303E-2,1.314124E-1,-2.833186E-1,2.510999E-1,-3.2525495E-1,5.942565E-2,-1.7362815E-1,7.949901E-2,-1.7970602E-1,-3.9881635E-1,-3.6184525E-1,2.511533E-1,5.731469E-2,-1.5328026E-1,-3.0848175E-1,1.4512269E-1,3.202612E-1,-4.7970373E-2,8.297092E-2,-1.6418085E-1,1.8611517E-2,3.8094828E-1,1.931184E-1,-3.373483E-1,1.4984035E-1,-1.8754064E-1,-6.1814064E-1,-9.173326E-2,7.995854E-3,1.13754354E-1,2.0120892E-1,3.506902E-1,-7.6403907E-3,-3.3674604E-1,-6.7710504E-2,2.1433963E-1,-1.1117761E-2,-1.9274355E-1,-4.8647686E-3,3.1065342E-1],"categories":[],"categories_nodes":[],"categories_segments":[],"categories_sizes":[],"default_left":[0,0,0,0,0,0,0,0,0,0,0,0,0,0,0,0,0,0,0,0,0,0,0,0,0,0,0,0,0,0,0,0,0,0,0,0,0,0,0,0,0,0,0,0,0,0,0,0,0,0,0,0,0,0,0,0,0,0,0,0,0,0,0,0,0,0,0,0,0,0,0,0,0,0,0,0,0,0,0,0,0,0,0,0,0,0,0,0,0,0,0,0,0,0,0,0,0,0,0,0,0,0,0],"id":9,"left_children":[1,3,5,7,9,11,13,15,17,19,21,-1,23,25,27,29,31,33,35,37,39,41,43,45,47,49,51,53,55,57,59,-1,61,63,65,-1,67,69,71,73,75,77,79,81,83,85,-1,87,89,91,93,95,97,-1,-1,99,101,-1,-1,-1,-1,-1,-1,-1,-1,-1,-1,-1,-1,-1,-1,-1,-1,-1,-1,-1,-1,-1,-1,-1,-1,-1,-1,-1,-1,-1,-1,-1,-1,-1,-1,-1,-1,-1,-1,-1,-1,-1,-1,-1,-1,-1,-1],"loss_changes":[1.518424E1,1.8684008E1,1.3103563E1,3.3554016E1,3.608542E1,6.859659E0,5.8133106E0,2.5215014E1,1.7489414E1,2.2325382E1,1.659193E1,0E0,5.9921913E0,4.5970707E0,1.0934561E1,1.0695629E1,8.429296E0,1.6803936E1,7.892519E0,2.1667381E1,1.7307522E1,1.3571087E1,1.3054082E1,3.5535061E0,9.372304E0,1.0672302E0,4.4303174E0,2.0431705E0,3.8771358E0,1.2653576E1,1.8606533E1,0E0,7.1735334E0,1.4288662E1,1.705182E1,0E0,4.846889E0,2.471432E1,1.2522247E1,7.340624E0,1.2349578E1,1.1371062E1,9.636322E0,1.0015146E1,6.9953966E0,7.7149167E0,0E0,3.065536E0,2.9137058E0,9.260562E-2,6.3124084E-1,8.137771E-1,3.0034003E0,0E0,0E0,2.2225583E-1,1.0948195E0,0E0,0E0,0E0,0E0,0E0,0E0,0E0,0E0,0E0,0E0,0E0,0E0,0E0,0E0,0E0,0E0,0E0,0E0,0E0,0E0,0E0,0E0,0E0,0E0,0E0,0E0,0E0,0E0,0E0,0E0,0E0,0E0,0E0,0E0,0E0,0E0,0E0,0E0,0E0,0E0,0E0,0E0,0E0,0E0,0E0,0E0],"parents":[2147483647,0,0,1,1,2,2,3,3,4,4,5,5,6,6,7,7,8,8,9,9,10,10,12,12,13,13,14,14,15,15,16,16,17,17,18,18,19,19,20,20,21,21,22,22,23,23,24,24,25,25,26,26,27,27,28,28,29,29,30,30,32,32,33,33,34,34,36,36,37,37,38,38,39,39,40,40,41,41,42,42,43,43,44,44,45,45,47,47,48,48,49,49,50,50,51,51,52,52,55,55,56,56],"right_children":[2,4,6,8,10,12,14,16,18,20,22,-1,24,26,28,30,32,34,36,38,40,42,44,46,48,50,52,54,56,58,60,-1,62,64,66,-1,68,70,72,74,76,78,80,82,84,86,-1,88,90,92,94,96,98,-1,-1,100,102,-1,-1,-1,-1,-1,-1,-1,-1,-1,-1,-1,-1,-1,-1,-1,-1,-1,-1,-1,-1,-1,-1,-1,-1,-1,-1,-1,-1,-1,-1,-1,-1,-1,-1,-1,-1,-1,-1,-1,-1,-1,-1,-1,-1,-1,-1],"split_conditions":[7.352841E-1,5.190026E-1,1.9794638E-1,9.828082E-2,6.3034797E-1,4.4E-1,7.55976E0,7.358757E-1,7.888386E-1,6.838565E-1,5.602134E-1,-3.3744353E-1,7.025411E-1,2.4187107E-1,4.246853E-1,6.638831E-1,2.7633867E-1,1.0165283E1,8.264659E-1,2.0034643E-1,5.1945364E-1,2.3013699E-1,7.820122E-1,5.1413935E-1,4.7E0,6.7E0,5.0333333E0,3.7912828E-1,7.71407E0,4.2986426E-1,7.650639E-1,-3.8566294E-1,6.9822484E-1,6.793373E-1,2.8637487E-1,-3.7347716E-1,3.6798468E-1,2.531888E-1,7.469005E0,8.2243747E-1,8.4584343E-1,4.5847717E-1,6.957211E-1,4.5341614E-1,5.4231626E-1,4.85E0,3.13665E-1,7.5411063E-1,4.8297224E0,6.385765E0,5.263955E-1,7.03333E0,5.550453E-1,-4.2498222E-1,-1.7476786E-2,6.041319E-1,2.4054463E-1,-3.9733518E-2,-2.8592238E-1,1.6113096E-1,-2.3509943E-1,-1.1254636E-1,1.2876257E-1,1.8936303E-2,1.314124E-1,-2.833186E-1,2.510999E-1,-3.2525495E-1,5.942565E-2,-1.7362815E-1,7.949901E-2,-1.7970602E-1,-3.9881635E-1,-3.6184525E-1,2.511533E-1,5.731469E-2,-1.5328026E-1,-3.0848175E-1,1.4512269E-1,3.202612E-1,-4.7970373E-2,8.297092E-2,-1.6418085E-1,1.8611517E-2,3.8094828E-1,1.931184E-1,-3.373483E-1,1.4984035E-1,-1.8754064E-1,-6.1814064E-1,-9.173326E-2,7.995854E-3,1.13754354E-1,2.0120892E-1,3.506902E-1,-7.6403907E-3,-3.3674604E-1,-6.7710504E-2,2.1433963E-1,-1.1117761E-2,-1.9274355E-1,-4.8647686E-3,3.1065342E-1],"split_indices":[8,6,27,2,27,21,39,17,35,13,25,0,13,27,40,31,40,39,24,30,2,22,25,40,38,39,38,0,39,35,37,0,36,10,40,0,32,32,39,23,23,40,24,20,19,38,0,13,38,38,7,39,7,0,0,6,16,0,0,0,0,0,0,0,0,0,0,0,0,0,0,0,0,0,0,0,0,0,0,0,0,0,0,0,0,0,0,0,0,0,0,0,0,0,0,0,0,0,0,0,0,0,0],"split_type":[0,0,0,0,0,0,0,0,0,0,0,0,0,0,0,0,0,0,0,0,0,0,0,0,0,0,0,0,0,0,0,0,0,0,0,0,0,0,0,0,0,0,0,0,0,0,0,0,0,0,0,0,0,0,0,0,0,0,0,0,0,0,0,0,0,0,0,0,0,0,0,0,0,0,0,0,0,0,0,0,0,0,0,0,0,0,0,0,0,0,0,0,0,0,0,0,0,0,0,0,0,0,0],"sum_hessian":[1.6198246E3,1.5168861E3,1.0293843E2,9.2044775E2,5.964384E2,3.3411633E1,6.9526794E1,2.0501527E2,7.1543243E2,4.4623206E2,1.5020636E2,4.960599E0,2.8451033E1,5.4266205E1,1.52605915E1,1.3569026E2,6.9325005E1,6.905691E2,2.4863398E1,2.6718207E2,1.7905E2,6.815612E1,8.205025E1,1.4750376E1,1.3700658E1,3.243533E1,2.1830875E1,4.881829E0,1.0378763E1,9.498453E1,4.0705738E1,2.6993232E0,6.662568E1,6.2801385E2,6.2555187E1,1.0967606E1,1.3895792E1,1.4037932E2,1.2680274E2,1.58978E1,1.631522E2,1.9075096E1,4.908102E1,6.3651802E1,1.8398441E1,9.2256365E0,5.5247383E0,9.478079E0,4.2225795E0,2.4906018E0,2.9944729E1,2.1558652E0,1.967501E1,3.2665038E0,1.6153249E0,2.059539E0,8.319223E0,2.620488E1,6.877965E1,2.069258E1,2.0013159E1,1.3089422E1,5.3536255E1,5.0135873E2,1.2665514E2,5.0914135E0,5.746377E1,2.9272902E0,1.0968502E1,8.0937225E1,5.944209E1,9.45958E1,3.220694E1,1.4623352E1,1.2744485E0,1.333324E2,2.981981E1,7.0617137E0,1.2013381E1,4.1845074E1,7.2359495E0,2.1725136E1,4.192667E1,9.696896E0,8.701545E0,6.5588913E0,2.6667457E0,6.948265E0,2.5298133E0,2.335822E0,1.8867573E0,1.4194578E0,1.0711441E0,8.881365E0,2.1063364E1,1.0711502E0,1.084715E0,3.7424872E0,1.5932524E1,1.0559831E0,1.0035561E0,1.0903919E0,7.228832E0],"tree_param":{"num_deleted":"0","num_feature":"42","num_nodes":"103","size_leaf_vector":"1"}},{"base_weights":[-7.4763764E-3,-1.2200728E-1,7.100264E-2,-6.802973E-2,-4.6084642E-1,4.541016E-1,2.7330376E-2,-3.4733918E-1,8.582389E-3,-8.022616E-1,5.1524676E-2,1.21781215E-1,9.5978683E-1,1.2998821E-1,-1.5327801E-1,-8.8771635E-1,1.0680783E-2,2.4539278E-1,-1.752216E-1,3.247094E-1,-8.651651E-1,-5.7413614E-1,4.1972685E-1,4.719902E-1,-1.0162187E0,1.103138E0,-3.710547E-2,1.8650731E-2,4.0191185E-1,-6.404892E-1,8.386671E-3,-1.1719363E0,-4.6450478E-1,6.509169E-1,-4.1506308E-1,-2.4486822E-1,4.464629E-1,-6.184651E-1,-1.3638827E-1,-3.4298855E-1,-3.2471704E-1,-8.850876E-1,2.4896757E-1,6.815554E-1,-4.6567622E-1,-8.548125E-1,7.75791E-1,2.8181687E-1,-1.239511E0,6.321565E-1,1.3230587E0,1.785337E-1,-2.86363E-1,-6.4357705E-2,6.9548523E-1,-5.112753E-1,7.440317E-1,-9.424431E-1,-7.81258E-2,-4.6470052E-1,1.8102236E-1,-3.7878454E-1,-4.1137796E-2,3.8980372E-2,-3.116535E-1,2.3788376E-1,-2.3582351E-1,3.938177E-2,-2.1952756E-1,2.5669659E-2,-3.1542704E-1,1.7270115E-1,-8.484602E-2,2.640327E-1,-5.417108E-2,-2.2899888E-1,1.1554266E-1,-3.407782E-1,-4.1732372E-4,3.0526936E-1,-7.782871E-2,2.6081058E-1,-1.0630751E-1,-2.831959E-1,2.535473E-1,1.484467E-1,-3.8597E-1,2.78841E-1,-1.9023235E-1,1.0473361E-1,-4.346766E-1,-2.8626537E-1,2.959323E-1,1.1463049E-2,4.3103397E-1,-5.9233326E-2,1.2713513E-1,3.004374E-1,-1.0223221E-1,-5.0929636E-2,-4.1108617E-1,-3.0254835E-1,2.4195597E-1,-3.4624857E-1,-8.47304E-3,-8.000508E-2,4.7532204E-1,-2.4620652E-1,4.6705898E-2,-1.8041213E-1,8.945381E-2],"categories":[],"categories_nodes":[],"categories_segments":[],"categories_sizes":[],"default_left":[0,0,0,0,0,0,0,0,0,0,0,0,0,0,0,0,0,0,0,0,0,0,0,0,0,0,0,0,0,0,0,0,0,0,0,0,0,0,0,0,0,0,0,0,0,0,0,0,0,0,0,0,0,0,0,0,0,0,0,0,0,0,0,0,0,0,0,0,0,0,0,0,0,0,0,0,0,0,0,0,0,0,0,0,0,0,0,0,0,0,0,0,0,0,0,0,0,0,0,0,0,0,0,0,0,0,0,0,0,0,0],"id":10,"left_children":[1,3,5,7,9,11,13,15,17,19,21,23,25,27,29,31,33,35,37,-1,39,41,43,45,47,49,51,53,55,57,59,61,63,65,67,69,71,-1,73,75,-1,77,79,81,83,85,87,-1,89,91,93,-1,-1,95,97,99,101,103,105,107,109,-1,-1,-1,-1,-1,-1,-1,-1,-1,-1,-1,-1,-1,-1,-1,-1,-1,-1,-1,-1,-1,-1,-1,-1,-1,-1,-1,-1,-1,-1,-1,-1,-1,-1,-1,-1,-1,-1,-1,-1,-1,-1,-1,-1,-1,-1,-1,-1,-1,-1],"loss_changes":[1.403209E1,1.1578068E1,1.5487677E1,1.1744383E1,1.5268925E1,1.5804169E1,1.5458904E1,2.2864044E1,1.882782E1,7.1365547E0,8.476492E0,2.3720488E1,5.3891716E0,1.608274E1,2.3810925E1,5.119709E0,1.9907557E1,1.8741146E1,1.7560337E1,0E0,5.4325485E0,3.718234E0,5.6684847E0,1.8912865E1,7.295287E0,2.5560722E0,3.8582375E0,2.1288803E1,4.859983E1,1.2715218E1,1.8698912E1,2.4086113E0,7.159548E0,6.5753365E0,7.688361E0,1.4912845E1,1.2826254E1,0E0,1.0924946E1,5.3427434E0,0E0,2.245842E0,2.0332096E0,3.8530102E0,4.473298E0,5.8292027E0,8.685139E0,0E0,4.8413773E0,7.876922E0,3.073719E0,0E0,0E0,2.2024351E1,1.3465435E1,1.2281236E1,1.315374E1,9.43449E0,9.012492E0,1.3647309E1,1.5551796E1,0E0,0E0,0E0,0E0,0E0,0E0,0E0,0E0,0E0,0E0,0E0,0E0,0E0,0E0,0E0,0E0,0E0,0E0,0E0,0E0,0E0,0E0,0E0,0E0,0E0,0E0,0E0,0E0,0E0,0E0,0E0,0E0,0E0,0E0,0E0,0E0,0E0,0E0,0E0,0E0,0E0,0E0,0E0,0E0,0E0,0E0,0E0,0E0,0E0,0E0],"parents":[2147483647,0,0,1,1,2,2,3,3,4,4,5,5,6,6,7,7,8,8,9,9,10,10,11,11,12,12,13,13,14,14,15,15,16,16,17,17,18,18,20,20,21,21,22,22,23,23,24,24,25,25,26,26,27,27,28,28,29,29,30,30,31,31,32,32,33,33,34,34,35,35,36,36,38,38,39,39,41,41,42,42,43,43,44,44,45,45,46,46,48,48,49,49,50,50,53,53,54,54,55,55,56,56,57,57,58,58,59,59,60,60],"right_children":[2,4,6,8,10,12,14,16,18,20,22,24,26,28,30,32,34,36,38,-1,40,42,44,46,48,50,52,54,56,58,60,62,64,66,68,70,72,-1,74,76,-1,78,80,82,84,86,88,-1,90,92,94,-1,-1,96,98,100,102,104,106,108,110,-1,-1,-1,-1,-1,-1,-1,-1,-1,-1,-1,-1,-1,-1,-1,-1,-1,-1,-1,-1,-1,-1,-1,-1,-1,-1,-1,-1,-1,-1,-1,-1,-1,-1,-1,-1,-1,-1,-1,-1,-1,-1,-1,-1,-1,-1,-1,-1,-1,-1],"split_conditions":[1E0,7.266034E-1,4.2166667E0,5.593087E-1,7.66835E-1,5.277908E-1,6.7150927E-1,6.399395E-1,4.606625E-1,2.1341464E-2,2.8376704E-1,7.417122E-1,6.5620685E-1,6.3786334E-1,2.8971255E-1,3.9318025E-1,7.4132687E-1,3.5712382E-1,2.669565E-1,3.247094E-1,1.9649702E-1,7.6939964E-1,4.7201994E-1,5.352419E-1,3.6857143E-1,3.386503E0,6.609277E0,6.3030344E-1,4.247619E-1,6.5642166E-1,5.4175794E-1,6.698101E-1,7.983333E0,5.8917683E-1,4.0702274E-1,2.9801735E-1,8.317778E0,-6.184651E-1,1.9065891E-1,8.3007234E-1,-3.2471704E-1,5.860353E-1,4.65E0,5E-1,8.05E0,7.18333E0,3.4251413E-1,2.8181687E-1,1.6631871E-1,3.5849056E-1,5.8370703E-1,1.785337E-1,-2.86363E-1,6.044022E-1,5.365574E-1,4.026915E-1,2.9436326E-1,8.2935524E-1,7.987774E0,5.176812E-1,5.049984E-1,-3.7878454E-1,-4.1137796E-2,3.8980372E-2,-3.116535E-1,2.3788376E-1,-2.3582351E-1,3.938177E-2,-2.1952756E-1,2.5669659E-2,-3.1542704E-1,1.7270115E-1,-8.484602E-2,2.640327E-1,-5.417108E-2,-2.2899888E-1,1.1554266E-1,-3.407782E-1,-4.1732372E-4,3.0526936E-1,-7.782871E-2,2.6081058E-1,-1.0630751E-1,-2.831959E-1,2.535473E-1,1.484467E-1,-3.8597E-1,2.78841E-1,-1.9023235E-1,1.0473361E-1,-4.346766E-1,-2.8626537E-1,2.959323E-1,1.1463049E-2,4.3103397E-1,-5.9233326E-2,1.2713513E-1,3.004374E-1,-1.0223221E-1,-5.0929636E-2,-4.1108617E-1,-3.0254835E-1,2.4195597E-1,-3.4624857E-1,-8.47304E-3,-8.000508E-2,4.7532204E-1,-2.4620652E-1,4.6705898E-2,-1.8041213E-1,8.945381E-2],"split_indices":[41,5,39,12,7,40,23,16,20,25,33,5,3,12,16,31,37,40,15,0,1,4,1,8,21,39,38,6,21,8,3,6,39,25,5,33,39,0,40,9,0,40,38,24,39,38,17,0,31,18,13,0,0,2,2,20,14,10,38,28,7,0,0,0,0,0,0,0,0,0,0,0,0,0,0,0,0,0,0,0,0,0,0,0,0,0,0,0,0,0,0,0,0,0,0,0,0,0,0,0,0,0,0,0,0,0,0,0,0,0,0],"split_type":[0,0,0,0,0,0,0,0,0,0,0,0,0,0,0,0,0,0,0,0,0,0,0,0,0,0,0,0,0,0,0,0,0,0,0,0,0,0,0,0,0,0,0,0,0,0,0,0,0,0,0,0,0,0,0,0,0,0,0,0,0,0,0,0,0,0,0,0,0,0,0,0,0,0,0,0,0,0,0,0,0,0,0,0,0,0,0,0,0,0,0,0,0,0,0,0,0,0,0,0,0,0,0,0,0,0,0,0,0,0,0],"sum_hessian":[1.5591918E3,6.337514E2,9.2544037E2,5.477024E2,8.604899E1,9.3740265E1,8.317001E2,1.1713231E2,4.305701E2,5.129987E1,3.474912E1,5.7315285E1,3.6424976E1,5.3046436E2,3.0123575E2,4.6088757E1,7.104355E1,1.880081E2,2.4256198E2,1.1334779E0,5.0166393E1,1.2666502E1,2.2082617E1,4.4275234E1,1.30400505E1,3.1752457E1,4.6725183E0,3.7712244E2,1.533419E2,7.4313675E1,2.2692206E2,2.6513622E1,1.9575136E1,2.8162989E1,4.2880558E1,5.4617836E1,1.3339026E2,3.8421564E0,2.3871983E2,1.5495784E1,3.467061E1,9.138762E0,3.5277395E0,1.7220467E1,4.8621492E0,7.9110837E0,3.636415E1,1.0076858E0,1.2032365E1,1.134039E1,2.0412067E1,2.9742548E0,1.6982635E0,3.3673007E2,4.0392387E1,4.1656868E1,1.1168503E2,4.7912052E1,2.6401627E1,6.0215893E1,1.6670616E2,2.4175058E1,2.3385634E0,9.999484E0,9.575651E0,2.6037682E1,2.1253068E0,1.5950178E1,2.6930382E1,3.9378826E1,1.5239012E1,1.13493225E2,1.989704E1,9.155633E0,2.295642E2,9.7936735E0,5.7021103E0,6.895911E0,2.242851E0,1.0057395E0,2.522E0,1.4713629E1,2.5068383E0,3.767342E0,1.0948073E0,1.8820006E0,6.0290833E0,3.30973E1,3.266849E0,1.3236718E0,1.0708693E1,1.7611495E0,9.579241E0,1.7683898E0,1.8643677E1,2.6505978E2,7.167028E1,3.121054E1,9.181846E0,3.0663769E1,1.0993099E1,3.3239286E0,1.083611E2,3.86895E1,9.222551E0,2.4466343E1,1.9352827E0,3.805593E1,2.2159964E1,2.117338E1,1.4553279E2],"tree_param":{"num_deleted":"0","num_feature":"42","num_nodes":"111","size_leaf_vector":"1"}},{"base_weights":[-7.305874E-3,-3.7647128E-2,2.562792E-1,-1.8896294E-1,1.8214267E-2,7.17816E-1,4.496219E-2,-7.32287E-2,-9.6990305E-1,2.1518183E-1,-6.7709126E-2,8.984458E-1,-4.0007046E-1,-2.3246108E-1,4.003616E-1,-1.9548915E-1,4.4683996E-1,3.717408E-2,-1.078055E0,-3.3505842E-1,3.5741413E-1,-3.982409E-1,2.195337E-3,1.2302147E0,5.799917E-1,-9.995303E-1,2.222407E-1,-1.2293266E0,-6.318224E-2,1.02955446E-1,6.882471E-1,-2.9842106E-1,5.7999027E-1,-3.8224205E-1,5.725316E-1,4.589537E-1,-3.33972E-1,-1.160273E0,1.9257836E-1,-3.5602972E-2,-1.5224061E0,4.0813595E-1,-8.827395E-1,-8.1511164E-1,1.965733E-2,1.5666398E-1,-1.1968378E-1,1.1474269E-1,3.8386762E-1,7.807475E-1,-2.7571154E-1,6.273872E-2,-4.0727058E-1,3.3654653E-2,-5.4417795E-1,2.853104E-1,-7.465802E-1,3.1887048E-1,-5.341597E-1,-1.0331416E-1,7.6911086E-1,-1.8069789E-1,-1.7177157E-2,2.143131E-1,-9.21146E-2,5.2544693E-3,2.4550146E-1,-3.6297715E-1,-1.3665438E-1,-1.5544984E-2,1.14620976E-1,9.235471E-2,-1.9853069E-1,-5.108508E-1,4.60836E-2,-5.095553E-1,1.3053375E-1,-3.6763042E-1,1.4100775E-1,-3.4550765E-1,-1.2792546E-1,-5.1681954E-2,1.3736767E-1,-2.5538057E-1,6.1799742E-2,-1.0125389E-1,6.182105E-3,2.7036124E-1,-1.0209562E-1,-2.6039377E-1,2.0278174E-1,-1.4674743E-1,2.099076E-1,-9.0431206E-2,2.0569184E-1,-2.9518235E-1,1.065999E-1,-1.2652364E-1,1.8977082E-1,-2.3217279E-1,9.888785E-2,-4.8037516E-3,2.4944675E-1],"categories":[],"categories_nodes":[],"categories_segments":[],"categories_sizes":[],"default_left":[0,0,0,0,0,0,0,0,0,0,0,0,0,0,0,0,0,0,0,0,0,0,0,0,0,0,0,0,0,0,0,0,0,0,0,0,0,0,0,0,0,0,0,0,0,0,0,0,0,0,0,0,0,0,0,0,0,0,0,0,0,0,0,0,0,0,0,0,0,0,0,0,0,0,0,0,0,0,0,0,0,0,0,0,0,0,0,0,0,0,0,0,0,0,0,0,0,0,0,0,0,0,0],"id":11,"left_children":[1,3,5,7,9,11,13,15,17,19,21,23,25,27,29,31,33,35,37,39,41,43,45,47,49,51,-1,53,55,57,59,61,63,-1,65,-1,-1,67,69,71,73,75,77,79,81,83,85,-1,-1,87,89,-1,-1,91,-1,93,95,97,99,-1,101,-1,-1,-1,-1,-1,-1,-1,-1,-1,-1,-1,-1,-1,-1,-1,-1,-1,-1,-1,-1,-1,-1,-1,-1,-1,-1,-1,-1,-1,-1,-1,-1,-1,-1,-1,-1,-1,-1,-1,-1,-1,-1],"loss_changes":[1.1896964E1,1.1277803E1,1.4944824E1,3.244155E1,1.6517107E1,1.00843525E1,1.0583865E1,2.0076687E1,5.088215E0,2.3317102E1,1.5705393E1,3.6996155E0,5.7954693E0,1.0112855E1,3.9543285E0,2.054633E1,1.3739129E1,1.1081366E1,4.5993195E0,2.1776108E1,1.5205933E1,2.0687435E1,1.0599714E1,3.2902908E-1,4.201525E0,2.5649433E0,0E0,6.493413E0,1.2758515E1,3.513096E0,2.2449455E0,1.6528301E1,3.8251066E0,0E0,7.726404E0,0E0,0E0,8.304672E-1,1.77406E-1,1.0968522E1,3.9938526E0,1.3663353E1,5.0215826E0,7.2833633E0,5.1450834E0,1.2522743E1,9.624588E0,0E0,0E0,2.8800306E0,3.4885783E0,0E0,0E0,1.6440057E0,0E0,8.571257E0,5.074994E0,4.6288915E0,1.6062746E0,0E0,1.1054535E0,0E0,0E0,0E0,0E0,0E0,0E0,0E0,0E0,0E0,0E0,0E0,0E0,0E0,0E0,0E0,0E0,0E0,0E0,0E0,0E0,0E0,0E0,0E0,0E0,0E0,0E0,0E0,0E0,0E0,0E0,0E0,0E0,0E0,0E0,0E0,0E0,0E0,0E0,0E0,0E0,0E0,0E0],"parents":[2147483647,0,0,1,1,2,2,3,3,4,4,5,5,6,6,7,7,8,8,9,9,10,10,11,11,12,12,13,13,14,14,15,15,16,16,17,17,18,18,19,19,20,20,21,21,22,22,23,23,24,24,25,25,27,27,28,28,29,29,30,30,31,31,32,32,34,34,37,37,38,38,39,39,40,40,41,41,42,42,43,43,44,44,45,45,46,46,49,49,50,50,53,53,55,55,56,56,57,57,58,58,60,60],"right_children":[2,4,6,8,10,12,14,16,18,20,22,24,26,28,30,32,34,36,38,40,42,44,46,48,50,52,-1,54,56,58,60,62,64,-1,66,-1,-1,68,70,72,74,76,78,80,82,84,86,-1,-1,88,90,-1,-1,92,-1,94,96,98,100,-1,102,-1,-1,-1,-1,-1,-1,-1,-1,-1,-1,-1,-1,-1,-1,-1,-1,-1,-1,-1,-1,-1,-1,-1,-1,-1,-1,-1,-1,-1,-1,-1,-1,-1,-1,-1,-1,-1,-1,-1,-1,-1,-1],"split_conditions":[7.609682E-1,4.9967766E-1,6.180124E-1,2.0030136E-1,4.5790878E-1,8.0956525E-1,7.69774E-1,7.4202603E-1,1.6143498E-1,3.5578007E-1,6.023916E-1,7.7123445E-1,5.0063777E-1,4.7416583E-1,1E0,6.4267385E-1,5.319513E-1,4.9497306E-1,8.106975E-1,8.8464E0,6.045549E-1,4.319453E-1,3.5369533E-1,5.2189267E-1,4.4579083E-1,7.582349E-1,2.222407E-1,4.5093945E-1,4.5412174E-1,8.7536234E-1,6.816568E-1,7.116221E-1,6.898364E0,-3.8224205E-1,2.6392695E-1,4.589537E-1,-3.33972E-1,7.7578473E-1,6.943333E0,6.655561E0,7.8431374E-1,5.36241E0,1.2432259E1,8.2355887E-1,3.5342467E-1,3.35E0,5.589041E-1,1.1474269E-1,3.8386762E-1,5.3240865E-1,1.3103993E1,6.273872E-2,-4.0727058E-1,4.821963E-1,-5.4417795E-1,3.2671216E-1,5.188431E-1,4.029929E-1,5.0662655E-1,-1.0331416E-1,1.1965E1,-1.8069789E-1,-1.7177157E-2,2.143131E-1,-9.21146E-2,5.2544693E-3,2.4550146E-1,-3.6297715E-1,-1.3665438E-1,-1.5544984E-2,1.14620976E-1,9.235471E-2,-1.9853069E-1,-5.108508E-1,4.60836E-2,-5.095553E-1,1.3053375E-1,-3.6763042E-1,1.4100775E-1,-3.4550765E-1,-1.2792546E-1,-5.1681954E-2,1.3736767E-1,-2.5538057E-1,6.1799742E-2,-1.0125389E-1,6.182105E-3,2.7036124E-1,-1.0209562E-1,-2.6039377E-1,2.0278174E-1,-1.4674743E-1,2.099076E-1,-9.0431206E-2,2.0569184E-1,-2.9518235E-1,1.065999E-1,-1.2652364E-1,1.8977082E-1,-2.3217279E-1,9.888785E-2,-4.8037516E-3,2.4944675E-1],"split_indices":[16,3,20,0,6,15,17,7,13,40,13,29,32,5,41,2,5,40,5,38,20,26,35,17,32,26,0,31,9,28,36,26,39,0,22,0,0,13,39,39,35,38,38,9,22,39,22,0,0,40,38,0,0,40,0,9,40,9,40,0,38,0,0,0,0,0,0,0,0,0,0,0,0,0,0,0,0,0,0,0,0,0,0,0,0,0,0,0,0,0,0,0,0,0,0,0,0,0,0,0,0,0,0],"split_type":[0,0,0,0,0,0,0,0,0,0,0,0,0,0,0,0,0,0,0,0,0,0,0,0,0,0,0,0,0,0,0,0,0,0,0,0,0,0,0,0,0,0,0,0,0,0,0,0,0,0,0,0,0,0,0,0,0,0,0,0,0,0,0,0,0,0,0,0,0,0,0,0,0,0,0,0,0,0,0,0,0,0,0,0,0,0,0,0,0,0,0,0,0,0,0,0,0,0,0,0,0,0,0],"sum_hessian":[1.4853789E3,1.3328158E3,1.5256311E2,3.5872595E2,9.740898E2,4.716134E1,1.0540178E2,3.1337762E2,4.534836E1,2.9540656E2,6.786832E2,4.0769962E1,6.391373E0,5.938894E1,4.6012836E1,2.5423486E2,5.914275E1,4.46141E0,4.0886948E1,6.0397373E1,2.3500917E2,1.1765831E2,5.610249E2,1.8565321E1,2.2204641E1,4.2710724E0,2.1203012E0,7.711946E0,5.1676994E1,2.3299953E1,2.2712883E1,2.249868E2,2.9248053E1,3.4035819E0,5.5739166E1,1.7982911E0,2.6631188E0,3.848367E1,2.4032762E0,4.905534E1,1.1342034E1,2.2641959E2,8.589581E0,5.8425728E1,5.923258E1,2.4730592E2,3.1371902E2,1.5025419E0,1.706278E1,1.805611E1,4.1485324E0,1.0711167E0,3.1999555E0,2.7383626E0,4.9735837E0,3.46103E1,1.7066698E1,1.7775452E1,5.5245004E0,1.4127936E0,2.1300089E1,9.888202E1,1.2610479E2,2.556899E1,3.6790614E0,1.7437525E1,3.8301643E1,3.528128E1,3.2023911E0,1.3668908E0,1.0363854E0,3.2007557E1,1.7047783E1,1.0225246E1,1.1167883E0,2.079311E0,2.2434029E2,6.928511E0,1.6610693E0,3.0259876E1,2.8165854E1,4.1614067E1,1.7618513E1,1.07815075E1,2.3652441E2,1.22346344E2,1.9137267E2,1.6481337E1,1.5747727E0,2.611294E0,1.5372385E0,1.6829128E0,1.0554497E0,1.41370945E1,2.0473202E1,1.4130034E1,2.9366624E0,5.1863947E0,1.2589058E1,4.4057145E0,1.118786E0,1.6224499E0,1.9677639E1],"tree_param":{"num_deleted":"0","num_feature":"42","num_nodes":"103","size_leaf_vector":"1"}},{"base_weights":[-8.06328E-3,-3.6334578E-2,2.579424E-1,-1.8507111E-1,2.9366307E-2,3.1683517E-1,-6.3701737E-1,1.7444876E-1,-3.389829E-1,-3.8468905E-2,2.3665836E-1,3.6654702E-1,-6.052872E-1,1.4540093E-1,-1.0377588E0,-8.0049515E-1,3.4248674E-1,-3.7140676E-1,6.536236E-1,1.1048135E-2,-4.5232752E-1,5.194602E-1,4.2690128E-2,-1.1265378E-1,4.6821156E-1,-3.1377435E-1,1.3903108E-1,-4.085475E-2,1.2459096E-1,2.293543E-2,-4.2267653E-1,3.697542E-1,-9.7911245E-1,4.1012034E-1,-3.5556954E-1,-2.9686344E-1,-1.2005626E0,3.336201E-1,-2.5127777E-1,-4.139183E-2,3.9403725E-1,-6.397357E-1,6.3179034E-1,-1.3415053E-1,7.487007E-1,-3.8023227E-1,2.749061E-1,-9.6603507E-1,5.98895E-1,1.072965E0,3.8242278E-1,-1.7615493E-1,3.461646E-1,3.0579029E-2,-3.6768067E-1,1.4610717E-1,-2.585122E-1,-6.94531E-2,-2.6786417E-1,-4.1042927E-1,1.5750062E-1,-2.5361078E-3,-2.500027E-1,-1.3139684E-1,1.740894E-1,9.0351634E-2,-2.4682091E-1,3.013646E-1,-2.5117558E-1,1.6886464E-1,-3.791756E-1,2.4845193E-1,-7.725313E-2,-3.232034E-2,-3.1023976E-1,-3.061592E-1,1.101755E-1,-4.2460954E-1,-3.1991344E-2,-1.1780048E-1,2.2395797E-1,3.6378002E-1,-3.2105803E-2,-1.1356946E-1,1.5232506E-1],"categories":[],"categories_nodes":[],"categories_segments":[],"categories_sizes":[],"default_left":[0,0,0,0,0,0,0,0,0,0,0,0,0,0,0,0,0,0,0,0,0,0,0,0,0,0,0,0,0,0,0,0,0,0,0,0,0,0,0,0,0,0,0,0,0,0,0,0,0,0,0,0,0,0,0,0,0,0,0,0,0,0,0,0,0,0,0,0,0,0,0,0,0,0,0,0,0,0,0,0,0,0,0,0,0],"id":12,"left_children":[1,3,5,7,9,11,13,15,17,19,21,23,25,27,29,31,33,35,37,39,41,43,45,47,49,-1,-1,-1,-1,-1,-1,51,53,55,-1,57,59,-1,-1,61,63,65,67,69,71,73,75,77,79,81,83,-1,-1,-1,-1,-1,-1,-1,-1,-1,-1,-1,-1,-1,-1,-1,-1,-1,-1,-1,-1,-1,-1,-1,-1,-1,-1,-1,-1,-1,-1,-1,-1,-1,-1],"loss_changes":[1.0821322E1,1.2713624E1,7.488187E0,2.2114265E1,1.2705051E1,6.198352E0,2.931304E0,1.9956842E1,9.236187E0,1.3963272E1,1.2196788E1,6.109806E0,3.8028526E0,3.5148287E-1,2.5836558E0,4.1167116E0,1.1147171E1,1.6408108E1,7.2219596E0,1.2253707E1,1.51971E1,1.3665577E1,1.3187731E1,1.4281476E1,4.921133E0,0E0,0E0,0E0,0E0,0E0,0E0,3.0070367E0,4.350587E0,1.0156334E1,0E0,9.538597E0,7.0912495E0,0E0,0E0,1.3996533E1,1.1641079E1,1.10224E1,6.9930024E0,1.9891548E1,5.5852547E0,8.37721E0,1.0731986E1,3.959033E0,2.184914E0,2.1420507E0,8.923607E0,0E0,0E0,0E0,0E0,0E0,0E0,0E0,0E0,0E0,0E0,0E0,0E0,0E0,0E0,0E0,0E0,0E0,0E0,0E0,0E0,0E0,0E0,0E0,0E0,0E0,0E0,0E0,0E0,0E0,0E0,0E0,0E0,0E0,0E0],"parents":[2147483647,0,0,1,1,2,2,3,3,4,4,5,5,6,6,7,7,8,8,9,9,10,10,11,11,12,12,13,13,14,14,15,15,16,16,17,17,18,18,19,19,20,20,21,21,22,22,23,23,24,24,31,31,32,32,33,33,35,35,36,36,39,39,40,40,41,41,42,42,43,43,44,44,45,45,46,46,47,47,48,48,49,49,50,50],"right_children":[2,4,6,8,10,12,14,16,18,20,22,24,26,28,30,32,34,36,38,40,42,44,46,48,50,-1,-1,-1,-1,-1,-1,52,54,56,-1,58,60,-1,-1,62,64,66,68,70,72,74,76,78,80,82,84,-1,-1,-1,-1,-1,-1,-1,-1,-1,-1,-1,-1,-1,-1,-1,-1,-1,-1,-1,-1,-1,-1,-1,-1,-1,-1,-1,-1,-1,-1,-1,-1,-1,-1],"split_conditions":[1.1366667E1,3.882459E-1,1.3605556E1,5.86959E-1,7.659073E-1,7.4274516E-1,5.1374704E-1,6.1584455E-1,8.524962E-1,6.5620685E-1,3.6320755E-1,3.7041384E-1,5.0095236E-1,1.227249E1,3.2342598E-1,1.4439411E-1,7.6493317E-1,7.0884144E-1,5.532359E-1,6.933368E-1,4.9971476E-1,3.466981E-1,8.177533E-1,7.0903957E-1,5.9498006E-1,-3.1377435E-1,1.3903108E-1,-4.085475E-2,1.2459096E-1,2.293543E-2,-4.2267653E-1,7.91667E0,2.5923017E-1,6.456621E-1,-3.5556954E-1,7.1233225E-1,1.125E1,3.336201E-1,-2.5127777E-1,7.35268E-1,1.6817667E-1,2.1572721E-1,8.8E0,5.065089E-1,3.723034E-1,6.2347275E-1,2.2093178E-1,6.1308277E-1,2.9002E-1,4.358696E-1,7.005134E-1,-1.7615493E-1,3.461646E-1,3.0579029E-2,-3.6768067E-1,1.4610717E-1,-2.585122E-1,-6.94531E-2,-2.6786417E-1,-4.1042927E-1,1.5750062E-1,-2.5361078E-3,-2.500027E-1,-1.3139684E-1,1.740894E-1,9.0351634E-2,-2.4682091E-1,3.013646E-1,-2.5117558E-1,1.6886464E-1,-3.791756E-1,2.4845193E-1,-7.725313E-2,-3.232034E-2,-3.1023976E-1,-3.061592E-1,1.101755E-1,-4.2460954E-1,-3.1991344E-2,-1.1780048E-1,2.2395797E-1,3.6378002E-1,-3.2105803E-2,-1.1356946E-1,1.5232506E-1],"split_indices":[39,40,39,7,12,9,12,13,16,3,18,6,21,38,40,29,5,25,31,8,27,18,12,17,27,0,0,0,0,0,0,38,12,22,0,2,39,0,0,1,29,31,39,36,31,3,10,5,40,40,27,0,0,0,0,0,0,0,0,0,0,0,0,0,0,0,0,0,0,0,0,0,0,0,0,0,0,0,0,0,0,0,0,0,0],"split_type":[0,0,0,0,0,0,0,0,0,0,0,0,0,0,0,0,0,0,0,0,0,0,0,0,0,0,0,0,0,0,0,0,0,0,0,0,0,0,0,0,0,0,0,0,0,0,0,0,0,0,0,0,0,0,0,0,0,0,0,0,0,0,0,0,0,0,0,0,0,0,0,0,0,0,0,0,0,0,0,0,0,0,0,0,0],"sum_hessian":[1.436697E3,1.2994535E3,1.3724355E2,3.9757928E2,9.018742E2,1.2937595E2,7.8675976E0,1.19142654E2,2.7843665E2,6.8012225E2,2.2175194E2,1.2332971E2,6.04624E0,2.8806028E0,4.9869947E0,1.6962677E1,1.0217998E2,2.7023514E2,8.201504E0,6.083126E2,7.180963E1,8.953444E1,1.322175E2,2.1566563E1,1.0176315E2,4.296264E0,1.7499758E0,1.652266E0,1.2283368E0,1.4445518E0,3.542443E0,2.1045008E0,1.4858176E1,9.8548676E1,3.6312995E0,2.4919029E2,2.1044842E1,6.467469E0,1.7340342E0,5.358363E2,7.247632E1,6.1575207E1,1.023442E1,2.3356152E1,6.617829E1,4.6639004E1,8.55785E1,9.643354E0,1.1923208E1,1.1212867E1,9.0550285E1,1.0609266E0,1.0435741E0,2.8676867E0,1.199049E1,9.351139E1,5.0372825E0,2.2581784E2,2.3372448E1,1.9371248E1,1.6735932E0,5.1541046E2,2.0425842E1,1.3009849E1,5.9466473E1,9.920852E0,5.1654358E1,8.415292E0,1.8191283E0,1.4754712E1,8.6014385E0,6.1497997E1,4.68029E0,3.3742397E1,1.2896607E1,5.025721E0,8.055277E1,5.9076514E0,3.7357025E0,1.3300662E0,1.0593142E1,1.0001666E1,1.2112013E0,1.2518344E1,7.8031944E1],"tree_param":{"num_deleted":"0","num_feature":"42","num_nodes":"85","size_leaf_vector":"1"}},{"base_weights":[-7.744669E-3,-1.13185264E-1,6.5919496E-2,3.5017893E-1,-1.2420401E-1,-3.0633401E-2,2.1788791E-1,-3.054185E-1,-3.392049E-2,-9.521995E-2,3.6249515E-1,1.6572186E-1,1.0981052E0,-1.19225636E-1,-6.136358E-1,-1.0033267E0,-1.052673E-2,-5.5688817E-2,-7.4203277E-1,-2.4271159E-1,4.9934623E-1,-3.0216813E-2,4.979301E-1,1.4415297E-1,1.3384764E0,6.704073E-2,-5.777757E-1,7.3768955E-1,-7.693203E-1,8.203365E-2,-1.4174901E0,-8.7618135E-2,3.7533063E-1,4.5698264E-1,-1.16871186E-1,-3.5477713E-1,-6.2781155E-2,-3.771956E-1,4.213025E-1,6.8539566E-1,6.0476348E-2,-2.8803444E-1,2.8856495E-1,-4.2341962E-1,5.4079473E-1,-2.647003E-1,3.6327496E-1,5.230436E-2,1.4894578E0,2.0278847E-1,-1.6809631E-2,3.5985965E-2,-3.368678E-1,4.2706692E-1,3.4569293E-2,-3.8519755E-1,-7.777621E-2,-1.880059E-3,-5.0944626E-1,-2.9038303E-3,-1.911646E-1,1.7237738E-1,-1.8793102E-1,2.8107637E-1,-1.463878E-1,-4.962653E-2,1.6807319E-1,2.4355419E-1,-1.9685872E-1,2.333636E-1,-9.399969E-2,-1.540893E-1,2.3591115E-1,-3.404622E-1,1.2079555E-1,2.6824834E-2,-1.7222601E-1,1.8617289E-1,-3.1694666E-2,-3.2125494E-1,1.7514597E-1,5.8937943E-1,3.0338943E-1],"categories":[],"categories_nodes":[],"categories_segments":[],"categories_sizes":[],"default_left":[0,0,0,0,0,0,0,0,0,0,0,0,0,0,0,0,0,0,0,0,0,0,0,0,0,0,0,0,0,0,0,0,0,0,0,0,0,0,0,0,0,0,0,0,0,0,0,0,0,0,0,0,0,0,0,0,0,0,0,0,0,0,0,0,0,0,0,0,0,0,0,0,0,0,0,0,0,0,0,0,0,0,0],"id":13,"left_children":[1,3,5,-1,7,9,11,13,15,17,19,21,23,25,27,29,31,33,35,37,39,41,43,45,47,49,51,53,55,-1,57,59,61,63,65,-1,67,-1,69,71,73,75,77,-1,79,-1,-1,-1,81,-1,-1,-1,-1,-1,-1,-1,-1,-1,-1,-1,-1,-1,-1,-1,-1,-1,-1,-1,-1,-1,-1,-1,-1,-1,-1,-1,-1,-1,-1,-1,-1,-1,-1],"loss_changes":[1.0873135E1,8.267921E0,1.209998E1,0E0,9.343408E0,1.285332E1,1.4526677E1,1.0830231E1,8.668957E0,1.1066285E1,6.0386667E0,1.9776062E1,3.8758812E0,1.0261293E1,1.5569773E1,5.1508465E0,1.1179411E1,1.2928499E1,7.388917E0,9.860137E0,4.743143E0,1.5854845E1,9.985683E0,6.20621E0,2.2101917E0,6.4834304E0,1.3323855E1,3.1989775E0,1.6581795E1,0E0,2.7473373E0,1.3406778E1,1.2853422E1,2.0396812E1,1.2174199E1,0E0,6.173333E0,0E0,2.6327233E0,5.374544E0,8.041143E0,1.1560441E1,1.1361376E1,0E0,8.31744E0,0E0,0E0,0E0,8.0916405E-1,0E0,0E0,0E0,0E0,0E0,0E0,0E0,0E0,0E0,0E0,0E0,0E0,0E0,0E0,0E0,0E0,0E0,0E0,0E0,0E0,0E0,0E0,0E0,0E0,0E0,0E0,0E0,0E0,0E0,0E0,0E0,0E0,0E0,0E0],"parents":[2147483647,0,0,1,1,2,2,4,4,5,5,6,6,7,7,8,8,9,9,10,10,11,11,12,12,13,13,14,14,15,15,16,16,17,17,18,18,19,19,20,20,21,21,22,22,23,23,24,24,25,25,26,26,27,27,28,28,30,30,31,31,32,32,33,33,34,34,36,36,38,38,39,39,40,40,41,41,42,42,44,44,48,48],"right_children":[2,4,6,-1,8,10,12,14,16,18,20,22,24,26,28,30,32,34,36,38,40,42,44,46,48,50,52,54,56,-1,58,60,62,64,66,-1,68,-1,70,72,74,76,78,-1,80,-1,-1,-1,82,-1,-1,-1,-1,-1,-1,-1,-1,-1,-1,-1,-1,-1,-1,-1,-1,-1,-1,-1,-1,-1,-1,-1,-1,-1,-1,-1,-1,-1,-1,-1,-1,-1,-1],"split_conditions":[1E0,4.5680556E0,4.775818E-1,3.5017893E-1,3.5607198E-1,1.1366667E1,1.2916667E1,4.679089E-1,4.984474E0,7.7652174E-1,7.563704E-1,8.150179E-1,5.004689E-1,3.274498E-1,3.834449E-2,1.6463415E-1,6.3273984E-1,3.999929E-1,8.2980335E-1,6.370617E-1,7.4208146E-1,5.6449705E-1,5.1029205E-1,7.244259E-1,5.6763887E0,5.7906467E-1,2.6022306E-1,7.8733E0,2.8066915E-1,8.203365E-2,6.866667E0,6.490019E-1,5.954338E-1,5.91314E-1,7.947826E-1,-3.5477713E-1,3.6529317E-1,-3.771956E-1,8.816667E0,4.1428572E-1,5.05176E-1,4.7995546E-1,6.6615856E-1,-4.2341962E-1,2.1860817E-1,-2.647003E-1,3.6327496E-1,5.230436E-2,5.1114494E-1,2.0278847E-1,-1.6809631E-2,3.5985965E-2,-3.368678E-1,4.2706692E-1,3.4569293E-2,-3.8519755E-1,-7.777621E-2,-1.880059E-3,-5.0944626E-1,-2.9038303E-3,-1.911646E-1,1.7237738E-1,-1.8793102E-1,2.8107637E-1,-1.463878E-1,-4.962653E-2,1.6807319E-1,2.4355419E-1,-1.9685872E-1,2.333636E-1,-9.399969E-2,-1.540893E-1,2.3591115E-1,-3.404622E-1,1.2079555E-1,2.6824834E-2,-1.7222601E-1,1.8617289E-1,-3.1694666E-2,-3.2125494E-1,1.7514597E-1,5.8937943E-1,3.0338943E-1],"split_indices":[41,38,40,0,34,39,38,20,38,15,26,9,40,37,37,25,10,6,16,4,35,36,8,14,39,5,33,39,33,0,39,4,22,19,28,0,24,0,38,21,20,19,25,0,16,0,0,0,40,0,0,0,0,0,0,0,0,0,0,0,0,0,0,0,0,0,0,0,0,0,0,0,0,0,0,0,0,0,0,0,0,0,0],"split_type":[0,0,0,0,0,0,0,0,0,0,0,0,0,0,0,0,0,0,0,0,0,0,0,0,0,0,0,0,0,0,0,0,0,0,0,0,0,0,0,0,0,0,0,0,0,0,0,0,0,0,0,0,0,0,0,0,0,0,0,0,0,0,0,0,0,0,0,0,0,0,0,0,0,0,0,0,0,0,0,0,0,0,0],"sum_hessian":[1.3979188E3,5.7473065E2,8.231881E2,4.008282E0,5.707224E2,5.038599E2,3.193282E2,1.8899474E2,3.8172766E2,4.334129E2,7.0447014E1,3.0258386E2,1.674435E1,1.1868463E2,7.03101E1,8.00777E0,3.7371988E2,4.094733E2,2.39396E1,1.2849253E1,5.759776E1,1.9089923E2,1.11684616E2,3.6919515E0,1.3052399E1,8.500769E1,3.367694E1,6.877322E0,6.3432777E1,2.0445745E0,5.9631953E0,3.1213132E2,6.158857E1,4.2966946E1,3.6650635E2,1.4071748E1,9.867852E0,4.7293463E0,8.119906E0,4.0055405E1,1.7542355E1,1.0559488E2,8.530436E1,1.7512524E0,1.0993336E2,1.9696008E0,1.7223507E0,1.7458607E0,1.1306538E1,1.3537341E1,7.147035E1,1.5112923E1,1.8564018E1,2.6596985E0,4.217624E0,3.0818611E1,3.2614166E1,1.1588155E0,4.8043795E0,2.7425647E2,3.787486E1,5.172619E1,9.862383E0,2.8500135E1,1.4466809E1,3.4269043E2,2.3815922E1,3.8400064E0,6.0278463E0,5.426927E0,2.6929798E0,2.7937906E0,3.7261616E1,3.388473E0,1.4153881E1,4.5820885E1,5.977399E1,4.5993717E1,3.9310642E1,2.23735E0,1.0769601E2,4.111921E0,7.194617E0],"tree_param":{"num_deleted":"0","num_feature":"42","num_nodes":"83","size_leaf_vector":"1"}},{"base_weights":[-6.2185344E-3,-1.7067341E-2,5.0383675E-1,-7.883489E-3,-6.1895204E-1,-4.680189E-2,6.3480437E-1,3.8818407E-1,-2.2716826E-2,2.8028595E-1,-1.1415063E0,3.1739432E-1,-2.4156256E-1,3.8603705E-1,4.1191015E-1,5.0046074E-1,-2.8476775E-1,-6.7407293E-3,-4.3844146E-1,-5.133989E-1,7.9698944E-1,2.526589E-1,-1.3913187E0,-1.9960983E-2,2.2764184E-1,-7.543986E-1,6.3144255E-1,5.71644E-1,-2.335558E-1,1.041164E-2,-4.5993838E-1,5.09386E-1,-8.0398905E-1,9.343241E-2,-3.6510807E-1,4.0002327E-2,2.7617234E-1,-1.5619907E0,-5.7898434E-3,1.7312334E-1,-1.8634643E-1,-5.054143E-1,1.747289E-1,2.8411308E-1,2.8940505E-1,2.03855E-1,-1.0498871E-1,-2.3424104E-2,2.3280006E-2,-2.0367365E-1,1.3039137E-1,-2.0631827E-1,2.2079119E-1,-3.1966826E-1,3.591042E-2,-5.421765E-1,-1.7557575E-1,-1.8752025E-1,2.0123641E-1],"categories":[],"categories_nodes":[],"categories_segments":[],"categories_sizes":[],"default_left":[0,0,0,0,0,0,0,0,0,0,0,0,0,0,0,0,0,0,0,0,0,0,0,0,0,0,0,0,0,0,0,0,0,0,0,0,0,0,0,0,0,0,0,0,0,0,0,0,0,0,0,0,0,0,0,0,0,0,0],"id":14,"left_children":[1,3,5,7,9,11,13,15,17,19,21,23,-1,-1,25,27,-1,29,31,33,35,-1,37,39,-1,41,43,45,-1,47,49,51,53,-1,-1,-1,-1,55,-1,-1,-1,-1,-1,57,-1,-1,-1,-1,-1,-1,-1,-1,-1,-1,-1,-1,-1,-1,-1],"loss_changes":[7.549689E0,7.3766646E0,2.0789409E0,7.7422953E0,9.744719E0,2.0209045E0,2.8159676E0,7.6188207E0,8.430364E0,3.761507E0,7.5557346E0,7.6493675E-1,0E0,0E0,5.246263E0,4.5004644E0,0E0,9.517787E0,1.6685211E1,2.602759E0,3.1546116E-1,0E0,2.7373848E0,1.7325718E0,0E0,5.2180834E0,1.6035981E0,4.490103E0,0E0,7.022716E0,9.041561E0,4.218584E0,8.412003E0,0E0,0E0,0E0,0E0,1.4573498E0,0E0,0E0,0E0,0E0,0E0,3.7101648E0,0E0,0E0,0E0,0E0,0E0,0E0,0E0,0E0,0E0,0E0,0E0,0E0,0E0,0E0,0E0],"parents":[2147483647,0,0,1,1,2,2,3,3,4,4,5,5,6,6,7,7,8,8,9,9,10,10,11,11,14,14,15,15,17,17,18,18,19,19,20,20,22,22,23,23,25,25,26,26,27,27,29,29,30,30,31,31,32,32,37,37,43,43],"right_children":[2,4,6,8,10,12,14,16,18,20,22,24,-1,-1,26,28,-1,30,32,34,36,-1,38,40,-1,42,44,46,-1,48,50,52,54,-1,-1,-1,-1,56,-1,-1,-1,-1,-1,58,-1,-1,-1,-1,-1,-1,-1,-1,-1,-1,-1,-1,-1,-1,-1],"split_conditions":[8.426389E-1,7.845751E-1,2.1251549E-1,4.8166666E0,4.65E0,8.733046E-1,3.309406E-1,4.3474844E-1,9.130194E-1,4.295232E-1,3.0164966E-1,5.1413935E-1,-2.4156256E-1,3.8603705E-1,6.2833333E0,8.008133E-1,-2.8476775E-1,7.101236E-1,3.959258E0,6.327101E-1,6.264667E-1,2.526589E-1,6.441322E-1,3.5478252E-1,2.2764184E-1,5.860353E-1,1E0,7.745948E-1,-2.335558E-1,1E0,8.434061E-1,1E0,8.108047E-1,9.343241E-2,-3.6510807E-1,4.0002327E-2,2.7617234E-1,8.317778E0,-5.7898434E-3,1.7312334E-1,-1.8634643E-1,-5.054143E-1,1.747289E-1,7.71407E0,2.8940505E-1,2.03855E-1,-1.0498871E-1,-2.3424104E-2,2.3280006E-2,-2.0367365E-1,1.3039137E-1,-2.0631827E-1,2.2079119E-1,-3.1966826E-1,3.591042E-2,-5.421765E-1,-1.7557575E-1,-1.8752025E-1,2.0123641E-1],"split_indices":[7,2,33,38,38,7,40,18,9,40,12,40,0,0,39,1,0,1,39,3,6,0,40,0,0,40,41,0,0,41,5,41,7,0,0,0,0,39,0,0,0,0,0,39,0,0,0,0,0,0,0,0,0,0,0,0,0,0,0],"split_type":[0,0,0,0,0,0,0,0,0,0,0,0,0,0,0,0,0,0,0,0,0,0,0,0,0,0,0,0,0,0,0,0,0,0,0,0,0,0,0,0,0,0,0,0,0,0,0,0,0,0,0,0,0,0,0,0,0,0,0],"sum_hessian":[1.3618085E3,1.3343927E3,2.7415815E1,1.3153358E3,1.9056942E1,5.3913097E0,2.2024506E1,4.6574413E1,1.2687614E3,7.174434E0,1.1882508E1,4.0351024E0,1.3562074E0,4.3951626E0,1.7629343E1,4.3544605E1,3.0298069E0,1.2227865E3,4.597488E1,2.8314962E0,4.342938E0,1.0638002E0,1.0818708E1,2.8283072E0,1.2067952E0,2.4067302E0,1.5222613E1,4.177274E1,1.7718685E0,1.1791362E3,4.3650257E1,1.2686527E1,3.3288353E1,1.5600629E0,1.2714335E0,1.0081486E0,3.3347895E0,9.498663E0,1.3200451E0,1.4391836E0,1.3891234E0,1.2656889E0,1.1410413E0,8.360857E0,6.8617563E0,3.7630795E1,4.1419444E0,5.088205E2,6.7031573E2,3.5260338E1,8.38992E0,1.695183E0,1.0991344E1,2.5822357E1,7.4659953E0,6.9125805E0,2.5860822E0,2.3108604E0,6.049997E0],"tree_param":{"num_deleted":"0","num_feature":"42","num_nodes":"59","size_leaf_vector":"1"}},{"base_weights":[-5.429932E-3,4.2897664E-2,-9.392523E-2,-3.9687313E-2,1.9264294E-1,-2.7359807E-1,4.3668024E-2,5.9111644E-2,-2.1543641E-1,-1.796171E-2,3.823133E-1,-5.222674E-1,-7.717654E-2,8.886699E-2,-8.496614E-1,-1.03932306E-1,2.7197012E-1,-8.661644E-1,-1.391964E-1,1.9899468E-1,-9.5223546E-1,-1.5510538E-2,5.844971E-1,7.6456755E-2,-6.650652E-1,-9.5235336E-1,3.1866323E-2,6.241481E-1,1.9880753E-2,-1.0095206E0,1.5049861E-1,5.4371264E-2,-4.998996E-1,-4.4552216E-1,3.2276854E-1,-1.1321893E0,-9.299384E-2,9.998556E-3,-5.145235E-1,-7.380779E-2,4.1360655E-1,-9.6754745E-2,-1.304218E0,4.347132E-1,-4.4105676E-1,8.026936E-1,1.9937404E-1,-2.858921E-1,8.933052E-1,-2.365416E-1,-9.808296E-1,1.446712E-1,-1.1338019E0,6.7768264E-1,-1.6452456E-1,-5.345987E-1,8.1407547E-1,6.375017E-2,-3.1623223E-1,-5.965938E-3,-3.6475354E-1,-3.5827145E-2,1.2529531E-1,-2.4579787E-1,-3.18282E-2,1.4619763E-1,-1.5196494E-2,1.1524125E-3,-3.725929E-1,-2.890612E-1,1.0399207E-1,-1.1657203E-1,4.80715E-2,-6.0757637E-2,-3.4531274E-1,-7.073953E-2,2.4214388E-1,2.5768203E-1,6.588468E-2,1.9541858E-1,-2.6269123E-1,-1.3609128E-2,-4.293631E-1,1.6408993E-1,-2.3748468E-1,-4.3104296E-3,-4.3445316E-1,1.07195236E-1,3.1280133E-1,-1.0111328E-1,1.7747618E-1,6.2752046E-2,-3.10282E-1,5.019457E-1,-8.592006E-3,-3.650066E-1,6.959089E-2,2.5310745E-2,-3.3350495E-1,-2.867341E-2,-3.7076622E-1,2.4133907E-1,-1.8291071E-1,-4.9737096E-3,-3.3727932E-1,2.7876845E-1,-3.5466933E-1,2.9355195E-1,-1.3736758E-1,-1.6412736E-1,4.0623117E-2,5.2511666E-2,-5.6435127E-2],"categories":[],"categories_nodes":[],"categories_segments":[],"categories_sizes":[],"default_left":[0,0,0,0,0,0,0,0,0,0,0,0,0,0,0,0,0,0,0,0,0,0,0,0,0,0,0,0,0,0,0,0,0,0,0,0,0,0,0,0,0,0,0,0,0,0,0,0,0,0,0,0,0,0,0,0,0,0,0,0,0,0,0,0,0,0,0,0,0,0,0,0,0,0,0,0,0,0,0,0,0,0,0,0,0,0,0,0,0,0,0,0,0,0,0,0,0,0,0,0,0,0,0,0,0,0,0,0,0,0,0,0,0],"id":15,"left_children":[1,3,5,7,9,11,13,15,17,19,21,23,25,27,29,31,33,35,37,39,41,43,45,47,49,51,53,55,57,59,-1,61,63,-1,65,67,69,71,73,75,77,79,81,83,85,87,89,91,93,95,97,-1,99,101,103,105,107,109,-1,111,-1,-1,-1,-1,-1,-1,-1,-1,-1,-1,-1,-1,-1,-1,-1,-1,-1,-1,-1,-1,-1,-1,-1,-1,-1,-1,-1,-1,-1,-1,-1,-1,-1,-1,-1,-1,-1,-1,-1,-1,-1,-1,-1,-1,-1,-1,-1,-1,-1,-1,-1,-1,-1],"loss_changes":[5.7520876E0,1.0766457E1,1.1755747E1,9.763634E0,1.2366703E1,1.0029098E1,1.0972779E1,1.2531332E1,9.915834E0,3.0101997E1,1.3107262E1,7.8142643E0,1.113388E1,9.50709E0,3.3346252E0,1.28600645E1,1.4451087E1,4.2190905E0,1.0212002E1,7.090605E0,8.300146E0,1.0891673E1,8.915234E0,5.696571E0,9.702709E0,3.9106722E0,1.3356287E1,6.9050417E0,1.0875164E1,2.4855528E0,0E0,9.340827E0,7.2806377E0,0E0,9.424009E0,1.9445515E0,2.810806E0,7.9312696E0,1.0066979E1,7.888573E0,5.6551933E0,5.9533205E0,3.0918083E0,4.237986E0,1.2530277E1,6.9603233E0,8.696782E0,5.2150965E0,4.2836704E0,1.5191168E1,5.941555E0,0E0,1.1293936E0,4.4968395E0,1.1465605E1,5.5955853E0,5.8136864E0,9.762574E0,0E0,1.337511E-1,0E0,0E0,0E0,0E0,0E0,0E0,0E0,0E0,0E0,0E0,0E0,0E0,0E0,0E0,0E0,0E0,0E0,0E0,0E0,0E0,0E0,0E0,0E0,0E0,0E0,0E0,0E0,0E0,0E0,0E0,0E0,0E0,0E0,0E0,0E0,0E0,0E0,0E0,0E0,0E0,0E0,0E0,0E0,0E0,0E0,0E0,0E0,0E0,0E0,0E0,0E0,0E0,0E0],"parents":[2147483647,0,0,1,1,2,2,3,3,4,4,5,5,6,6,7,7,8,8,9,9,10,10,11,11,12,12,13,13,14,14,15,15,16,16,17,17,18,18,19,19,20,20,21,21,22,22,23,23,24,24,25,25,26,26,27,27,28,28,29,29,31,31,32,32,34,34,35,35,36,36,37,37,38,38,39,39,40,40,41,41,42,42,43,43,44,44,45,45,46,46,47,47,48,48,49,49,50,50,52,52,53,53,54,54,55,55,56,56,57,57,59,59],"right_children":[2,4,6,8,10,12,14,16,18,20,22,24,26,28,30,32,34,36,38,40,42,44,46,48,50,52,54,56,58,60,-1,62,64,-1,66,68,70,72,74,76,78,80,82,84,86,88,90,92,94,96,98,-1,100,102,104,106,108,110,-1,112,-1,-1,-1,-1,-1,-1,-1,-1,-1,-1,-1,-1,-1,-1,-1,-1,-1,-1,-1,-1,-1,-1,-1,-1,-1,-1,-1,-1,-1,-1,-1,-1,-1,-1,-1,-1,-1,-1,-1,-1,-1,-1,-1,-1,-1,-1,-1,-1,-1,-1,-1,-1,-1],"split_conditions":[6.9814366E-1,6.4886093E-1,7.6674736E-1,6.056538E-1,4.5714286E-1,6.599402E-1,7.5914633E-1,5.2490085E-1,9.828082E-2,4.9940827E-1,6.50146E0,5.546985E0,3.404088E-1,4.6196306E-1,6.3066417E-1,6.505168E-1,4.6621075E-1,1.215E1,5.7304275E-1,3.499246E-1,4.4209355E-1,4.66667E0,6.5617436E-1,4.8792028E-1,4.5333335E-1,4.272653E-1,5.65E0,3.164962E-1,4.3474844E-1,7.8369653E-1,1.5049861E-1,5.3914446E-1,6.737288E-1,-4.4552216E-1,6.112805E-1,3.2770172E-1,5.310538E-1,1E0,4.933185E-1,5.525171E-1,4.0253565E-1,7.233333E0,4.9146324E-1,7.4281806E-1,6.0194904E-1,1E0,5.6024384E-1,1E0,6.2376696E-1,4.0236792E-1,4.029929E-1,1.446712E-1,3.5E0,6.235725E-1,6.9125056E-1,2.4595843E-1,9.1E0,4.813046E-1,-3.1623223E-1,5.719103E-1,-3.6475354E-1,-3.5827145E-2,1.2529531E-1,-2.4579787E-1,-3.18282E-2,1.4619763E-1,-1.5196494E-2,1.1524125E-3,-3.725929E-1,-2.890612E-1,1.0399207E-1,-1.1657203E-1,4.80715E-2,-6.0757637E-2,-3.4531274E-1,-7.073953E-2,2.4214388E-1,2.5768203E-1,6.588468E-2,1.9541858E-1,-2.6269123E-1,-1.3609128E-2,-4.293631E-1,1.6408993E-1,-2.3748468E-1,-4.3104296E-3,-4.3445316E-1,1.07195236E-1,3.1280133E-1,-1.0111328E-1,1.7747618E-1,6.2752046E-2,-3.10282E-1,5.019457E-1,-8.592006E-3,-3.650066E-1,6.959089E-2,2.5310745E-2,-3.3350495E-1,-2.867341E-2,-3.7076622E-1,2.4133907E-1,-1.8291071E-1,-4.9737096E-3,-3.3727932E-1,2.7876845E-1,-3.5466933E-1,2.9355195E-1,-1.3736758E-1,-1.6412736E-1,4.0623117E-2,5.2511666E-2,-5.6435127E-2],"split_indices":[23,12,23,4,21,13,25,8,2,36,39,38,18,2,40,7,7,39,23,35,19,39,23,40,21,7,39,40,18,23,0,23,17,0,25,40,6,41,19,26,24,39,4,5,34,41,2,41,7,40,9,0,39,11,2,30,38,7,0,3,0,0,0,0,0,0,0,0,0,0,0,0,0,0,0,0,0,0,0,0,0,0,0,0,0,0,0,0,0,0,0,0,0,0,0,0,0,0,0,0,0,0,0,0,0,0,0,0,0,0,0,0,0],"split_type":[0,0,0,0,0,0,0,0,0,0,0,0,0,0,0,0,0,0,0,0,0,0,0,0,0,0,0,0,0,0,0,0,0,0,0,0,0,0,0,0,0,0,0,0,0,0,0,0,0,0,0,0,0,0,0,0,0,0,0,0,0,0,0,0,0,0,0,0,0,0,0,0,0,0,0,0,0,0,0,0,0,0,0,0,0,0,0,0,0,0,0,0,0,0,0,0,0,0,0,0,0,0,0,0,0,0,0,0,0,0,0,0,0],"sum_hessian":[1.3430203E3,8.689816E2,4.740387E2,5.605639E2,3.0841772E2,2.0515434E2,2.6888434E2,3.59264E2,2.0129988E2,1.4657275E2,1.6184497E2,8.980389E1,1.15350464E2,2.5679218E2,1.2092155E1,2.037266E2,1.5553743E2,2.0024513E1,1.8127536E2,1.1958891E2,2.6983847E1,5.4847816E1,1.0699716E2,1.738336E1,7.242053E1,1.1922982E1,1.03427475E2,2.8397968E1,2.2839421E2,1.1039179E1,1.0529767E0,1.4615718E2,5.756942E1,3.5770693E0,1.5196036E2,1.4552936E1,5.471577E0,1.3040993E2,5.0865433E1,5.2944695E1,6.664422E1,8.237583E0,1.8746264E1,2.6640686E1,2.8207129E1,6.760846E1,3.93887E1,1.2491995E1,4.8913646E0,3.1466488E1,4.095404E1,1.1525832E0,1.0770399E1,2.354637E1,7.988111E1,3.7435875E0,2.465438E1,2.203348E2,8.05942E0,2.0580094E0,8.98117E0,9.931539E1,4.684178E1,3.1189896E1,2.6379522E1,1.05267166E2,4.669319E1,1.3675095E0,1.3185427E1,1.4361324E0,4.0354447E0,3.5266056E1,9.5143875E1,3.5018726E1,1.5846706E1,4.533989E1,7.604804E0,1.9181852E1,4.7462364E1,4.2851725E0,3.9524112E0,1.8421854E0,1.6904078E1,2.4914127E1,1.7265589E0,2.0525372E1,